digraph Tree {
node [shape=box, style="filled, rounded", color="black", fontname=helvetica] ;
edge [fontname=helvetica] ;
0 [label="num_time <= 0.279\nmse = 205.372\nsamples = 8354\nvalue = 54.115", fillcolor="#e5813972"] ;
1 [label="num_time <= 0.142\nmse = 70.454\nsamples = 2353\nvalue = 37.849", fillcolor="#e5813934"] ;
0 -> 1 [labeldistance=2.5, labelangle=45, headlabel="True"] ;
2 [label="num_time <= 0.068\nmse = 29.999\nsamples = 1211\nvalue = 31.694", fillcolor="#e581391d"] ;
1 -> 2 ;
3 [label="num_time <= 0.005\nmse = 16.748\nsamples = 596\nvalue = 28.325", fillcolor="#e5813910"] ;
2 -> 3 ;
4 [label="ws <= 0.144\nmse = 20.14\nsamples = 82\nvalue = 31.555", fillcolor="#e581391c"] ;
3 -> 4 ;
5 [label="season_day <= 0.817\nmse = 17.948\nsamples = 32\nvalue = 32.904", fillcolor="#e5813921"] ;
4 -> 5 ;
6 [label="temp <= 0.377\nmse = 15.501\nsamples = 28\nvalue = 33.489", fillcolor="#e5813923"] ;
5 -> 6 ;
7 [label="day <= 0.7\nmse = 12.32\nsamples = 16\nvalue = 31.891", fillcolor="#e581391d"] ;
6 -> 7 ;
8 [label="ws <= 0.133\nmse = 8.102\nsamples = 14\nvalue = 32.968", fillcolor="#e5813922"] ;
7 -> 8 ;
9 [label="day <= 0.05\nmse = 6.554\nsamples = 13\nvalue = 33.22", fillcolor="#e5813922"] ;
8 -> 9 ;
10 [label="mse = 0.0\nsamples = 1\nvalue = 26.91", fillcolor="#e581390b"] ;
9 -> 10 ;
11 [label="season_day <= 0.444\nmse = 5.267\nsamples = 12\nvalue = 33.453", fillcolor="#e5813923"] ;
9 -> 11 ;
12 [label="temp <= 0.206\nmse = 4.157\nsamples = 11\nvalue = 33.674", fillcolor="#e5813924"] ;
11 -> 12 ;
13 [label="rh <= 0.168\nmse = 9.001\nsamples = 4\nvalue = 32.5", fillcolor="#e5813920"] ;
12 -> 13 ;
14 [label="season_day <= 0.028\nmse = 0.423\nsamples = 2\nvalue = 34.071", fillcolor="#e5813926"] ;
13 -> 14 ;
15 [label="mse = 0.0\nsamples = 1\nvalue = 35.1", fillcolor="#e581392a"] ;
14 -> 15 ;
16 [label="mse = -0.0\nsamples = 1\nvalue = 33.66", fillcolor="#e5813924"] ;
14 -> 16 ;
17 [label="day_of_week_Sat <= 0.5\nmse = 0.13\nsamples = 2\nvalue = 27.0", fillcolor="#e581390b"] ;
13 -> 17 ;
18 [label="mse = 0.0\nsamples = 1\nvalue = 27.36", fillcolor="#e581390c"] ;
17 -> 18 ;
19 [label="mse = 0.0\nsamples = 1\nvalue = 26.64", fillcolor="#e581390a"] ;
17 -> 19 ;
20 [label="season_day <= 0.139\nmse = 0.477\nsamples = 7\nvalue = 34.295", fillcolor="#e5813927"] ;
12 -> 20 ;
21 [label="day_of_week_Thu <= 0.5\nmse = 0.088\nsamples = 2\nvalue = 33.78", fillcolor="#e5813925"] ;
20 -> 21 ;
22 [label="mse = 0.0\nsamples = 1\nvalue = 33.57", fillcolor="#e5813924"] ;
21 -> 22 ;
23 [label="mse = -0.0\nsamples = 1\nvalue = 34.2", fillcolor="#e5813926"] ;
21 -> 23 ;
24 [label="pwat <= 0.334\nmse = 0.279\nsamples = 5\nvalue = 34.875", fillcolor="#e5813929"] ;
20 -> 24 ;
25 [label="rh <= 0.146\nmse = 0.031\nsamples = 3\nvalue = 35.244", fillcolor="#e581392a"] ;
24 -> 25 ;
26 [label="mse = 0.0\nsamples = 1\nvalue = 35.46", fillcolor="#e581392b"] ;
25 -> 26 ;
27 [label="mse = -0.0\nsamples = 2\nvalue = 35.1", fillcolor="#e581392a"] ;
25 -> 27 ;
28 [label="pwat <= 0.41\nmse = 0.088\nsamples = 2\nvalue = 34.26", fillcolor="#e5813926"] ;
24 -> 28 ;
29 [label="mse = 0.0\nsamples = 1\nvalue = 34.47", fillcolor="#e5813927"] ;
28 -> 29 ;
30 [label="mse = 0.0\nsamples = 1\nvalue = 33.84", fillcolor="#e5813925"] ;
28 -> 30 ;
31 [label="mse = -0.0\nsamples = 1\nvalue = 27.72", fillcolor="#e581390e"] ;
11 -> 31 ;
32 [label="mse = 0.0\nsamples = 1\nvalue = 25.92", fillcolor="#e5813907"] ;
8 -> 32 ;
33 [label="day_of_week_Sun <= 0.5\nmse = 0.002\nsamples = 2\nvalue = 26.685", fillcolor="#e581390a"] ;
7 -> 33 ;
34 [label="mse = 0.0\nsamples = 1\nvalue = 26.73", fillcolor="#e581390a"] ;
33 -> 34 ;
35 [label="mse = -0.0\nsamples = 1\nvalue = 26.64", fillcolor="#e581390a"] ;
33 -> 35 ;
36 [label="ws <= 0.112\nmse = 4.65\nsamples = 12\nvalue = 36.985", fillcolor="#e5813931"] ;
6 -> 36 ;
37 [label="temp <= 0.406\nmse = 0.811\nsamples = 7\nvalue = 35.73", fillcolor="#e581392c"] ;
36 -> 37 ;
38 [label="pwat <= 0.348\nmse = 0.181\nsamples = 5\nvalue = 36.11", fillcolor="#e581392d"] ;
37 -> 38 ;
39 [label="mse = 0.0\nsamples = 1\nvalue = 36.81", fillcolor="#e5813930"] ;
38 -> 39 ;
40 [label="season_day <= 0.5\nmse = 0.053\nsamples = 4\nvalue = 35.91", fillcolor="#e581392d"] ;
38 -> 40 ;
41 [label="day_of_week_Wed <= 0.5\nmse = 0.005\nsamples = 3\nvalue = 36.0", fillcolor="#e581392d"] ;
40 -> 41 ;
42 [label="ws <= 0.085\nmse = 0.002\nsamples = 2\nvalue = 35.955", fillcolor="#e581392d"] ;
41 -> 42 ;
43 [label="mse = 0.0\nsamples = 1\nvalue = 36.0", fillcolor="#e581392d"] ;
42 -> 43 ;
44 [label="mse = -0.0\nsamples = 1\nvalue = 35.91", fillcolor="#e581392d"] ;
42 -> 44 ;
45 [label="mse = 0.0\nsamples = 1\nvalue = 36.09", fillcolor="#e581392d"] ;
41 -> 45 ;
46 [label="mse = -0.0\nsamples = 1\nvalue = 35.37", fillcolor="#e581392b"] ;
40 -> 46 ;
47 [label="temp <= 0.423\nmse = 0.073\nsamples = 2\nvalue = 34.02", fillcolor="#e5813925"] ;
37 -> 47 ;
48 [label="mse = 0.0\nsamples = 1\nvalue = 34.29", fillcolor="#e5813927"] ;
47 -> 48 ;
49 [label="mse = 0.0\nsamples = 1\nvalue = 33.75", fillcolor="#e5813924"] ;
47 -> 49 ;
50 [label="season_day <= 0.656\nmse = 2.007\nsamples = 5\nvalue = 39.746", fillcolor="#e581393b"] ;
36 -> 50 ;
51 [label="month <= 0.25\nmse = 0.414\nsamples = 3\nvalue = 38.76", fillcolor="#e5813937"] ;
50 -> 51 ;
52 [label="mse = 0.0\nsamples = 1\nvalue = 39.555", fillcolor="#e581393a"] ;
51 -> 52 ;
53 [label="day <= 0.7\nmse = 0.146\nsamples = 2\nvalue = 38.362", fillcolor="#e5813936"] ;
51 -> 53 ;
54 [label="mse = 0.0\nsamples = 1\nvalue = 37.98", fillcolor="#e5813934"] ;
53 -> 54 ;
55 [label="mse = 0.0\nsamples = 1\nvalue = 38.745", fillcolor="#e5813937"] ;
53 -> 55 ;
56 [label="day_of_week_Mon <= 0.5\nmse = 0.752\nsamples = 2\nvalue = 41.225", fillcolor="#e5813941"] ;
50 -> 56 ;
57 [label="mse = 0.0\nsamples = 1\nvalue = 40.357", fillcolor="#e581393e"] ;
56 -> 57 ;
58 [label="mse = -0.0\nsamples = 1\nvalue = 42.092", fillcolor="#e5813944"] ;
56 -> 58 ;
59 [label="day_of_week_Sun <= 0.5\nmse = 17.436\nsamples = 4\nvalue = 29.171", fillcolor="#e5813913"] ;
5 -> 59 ;
60 [label="ws <= 0.069\nmse = 0.021\nsamples = 3\nvalue = 25.938", fillcolor="#e5813907"] ;
59 -> 60 ;
61 [label="mse = 0.0\nsamples = 1\nvalue = 25.65", fillcolor="#e5813906"] ;
60 -> 61 ;
62 [label="mse = 0.0\nsamples = 2\nvalue = 26.01", fillcolor="#e5813907"] ;
60 -> 62 ;
63 [label="mse = 0.0\nsamples = 1\nvalue = 34.56", fillcolor="#e5813928"] ;
59 -> 63 ;
64 [label="pwat <= 0.147\nmse = 19.307\nsamples = 50\nvalue = 30.494", fillcolor="#e5813918"] ;
4 -> 64 ;
65 [label="rh <= 0.087\nmse = 0.435\nsamples = 6\nvalue = 26.606", fillcolor="#e5813909"] ;
64 -> 65 ;
66 [label="day_of_week_Sun <= 0.5\nmse = 0.18\nsamples = 2\nvalue = 25.89", fillcolor="#e5813907"] ;
65 -> 66 ;
67 [label="mse = 0.0\nsamples = 1\nvalue = 26.19", fillcolor="#e5813908"] ;
66 -> 67 ;
68 [label="mse = -0.0\nsamples = 1\nvalue = 25.29", fillcolor="#e5813904"] ;
66 -> 68 ;
69 [label="day_of_week_Thu <= 0.5\nmse = 0.096\nsamples = 4\nvalue = 27.036", fillcolor="#e581390b"] ;
65 -> 69 ;
70 [label="season_day <= 0.05\nmse = 0.056\nsamples = 3\nvalue = 27.24", fillcolor="#e581390c"] ;
69 -> 70 ;
71 [label="mse = 0.0\nsamples = 1\nvalue = 26.91", fillcolor="#e581390b"] ;
70 -> 71 ;
72 [label="rh <= 0.14\nmse = 0.002\nsamples = 2\nvalue = 27.405", fillcolor="#e581390c"] ;
70 -> 72 ;
73 [label="mse = 0.0\nsamples = 1\nvalue = 27.36", fillcolor="#e581390c"] ;
72 -> 73 ;
74 [label="mse = -0.0\nsamples = 1\nvalue = 27.45", fillcolor="#e581390d"] ;
72 -> 74 ;
75 [label="mse = -0.0\nsamples = 1\nvalue = 26.73", fillcolor="#e581390a"] ;
69 -> 75 ;
76 [label="pwat <= 0.195\nmse = 19.54\nsamples = 44\nvalue = 30.958", fillcolor="#e581391a"] ;
64 -> 76 ;
77 [label="pwat <= 0.169\nmse = 0.941\nsamples = 2\nvalue = 36.072", fillcolor="#e581392d"] ;
76 -> 77 ;
78 [label="mse = 0.0\nsamples = 1\nvalue = 37.26", fillcolor="#e5813932"] ;
77 -> 78 ;
79 [label="mse = -0.0\nsamples = 1\nvalue = 35.28", fillcolor="#e581392a"] ;
77 -> 79 ;
80 [label="pwat <= 0.326\nmse = 18.761\nsamples = 42\nvalue = 30.546", fillcolor="#e5813918"] ;
76 -> 80 ;
81 [label="rh <= 0.224\nmse = 0.897\nsamples = 5\nvalue = 27.099", fillcolor="#e581390b"] ;
80 -> 81 ;
82 [label="pwat <= 0.261\nmse = 0.273\nsamples = 3\nvalue = 26.55", fillcolor="#e5813909"] ;
81 -> 82 ;
83 [label="pwat <= 0.213\nmse = 0.007\nsamples = 2\nvalue = 27.15", fillcolor="#e581390b"] ;
82 -> 83 ;
84 [label="mse = 0.0\nsamples = 1\nvalue = 27.09", fillcolor="#e581390b"] ;
83 -> 84 ;
85 [label="mse = -0.0\nsamples = 1\nvalue = 27.27", fillcolor="#e581390c"] ;
83 -> 85 ;
86 [label="mse = 0.0\nsamples = 1\nvalue = 26.1", fillcolor="#e5813908"] ;
82 -> 86 ;
87 [label="temp <= 0.374\nmse = 0.007\nsamples = 2\nvalue = 28.38", fillcolor="#e5813910"] ;
81 -> 87 ;
88 [label="mse = 0.0\nsamples = 1\nvalue = 28.44", fillcolor="#e5813910"] ;
87 -> 88 ;
89 [label="mse = 0.0\nsamples = 1\nvalue = 28.26", fillcolor="#e5813910"] ;
87 -> 89 ;
90 [label="season_day <= 0.639\nmse = 19.472\nsamples = 37\nvalue = 31.208", fillcolor="#e581391b"] ;
80 -> 90 ;
91 [label="temp <= 0.462\nmse = 18.246\nsamples = 24\nvalue = 32.411", fillcolor="#e581391f"] ;
90 -> 91 ;
92 [label="ws <= 0.404\nmse = 12.732\nsamples = 20\nvalue = 33.639", fillcolor="#e5813924"] ;
91 -> 92 ;
93 [label="pwat <= 0.346\nmse = 10.63\nsamples = 19\nvalue = 34.108", fillcolor="#e5813926"] ;
92 -> 93 ;
94 [label="temp <= 0.374\nmse = 14.906\nsamples = 4\nvalue = 31.731", fillcolor="#e581391d"] ;
93 -> 94 ;
95 [label="season_day <= 0.3\nmse = 2.341\nsamples = 2\nvalue = 34.92", fillcolor="#e5813929"] ;
94 -> 95 ;
96 [label="mse = 0.0\nsamples = 1\nvalue = 36.45", fillcolor="#e581392f"] ;
95 -> 96 ;
97 [label="mse = -0.0\nsamples = 1\nvalue = 33.39", fillcolor="#e5813923"] ;
95 -> 97 ;
98 [label="pwat <= 0.34\nmse = 0.029\nsamples = 2\nvalue = 27.48", fillcolor="#e581390d"] ;
94 -> 98 ;
99 [label="mse = 0.0\nsamples = 1\nvalue = 27.72", fillcolor="#e581390e"] ;
98 -> 99 ;
100 [label="mse = -0.0\nsamples = 1\nvalue = 27.36", fillcolor="#e581390c"] ;
98 -> 100 ;
101 [label="rh <= 0.379\nmse = 6.206\nsamples = 15\nvalue = 34.984", fillcolor="#e5813929"] ;
93 -> 101 ;
102 [label="temp <= 0.418\nmse = 1.596\nsamples = 11\nvalue = 36.28", fillcolor="#e581392e"] ;
101 -> 102 ;
103 [label="day <= 0.333\nmse = 0.633\nsamples = 6\nvalue = 35.421", fillcolor="#e581392b"] ;
102 -> 103 ;
104 [label="biz_day_0 <= 0.5\nmse = 0.065\nsamples = 2\nvalue = 36.36", fillcolor="#e581392e"] ;
103 -> 104 ;
105 [label="mse = 0.0\nsamples = 1\nvalue = 36.0", fillcolor="#e581392d"] ;
104 -> 105 ;
106 [label="mse = 0.0\nsamples = 1\nvalue = 36.54", fillcolor="#e581392f"] ;
104 -> 106 ;
107 [label="day_of_week_Thu <= 0.5\nmse = 0.126\nsamples = 4\nvalue = 34.857", fillcolor="#e5813929"] ;
103 -> 107 ;
108 [label="day_of_week_Wed <= 0.5\nmse = 0.007\nsamples = 3\nvalue = 34.684", fillcolor="#e5813928"] ;
107 -> 108 ;
109 [label="temp <= 0.394\nmse = 0.0\nsamples = 2\nvalue = 34.635", fillcolor="#e5813928"] ;
108 -> 109 ;
110 [label="mse = 0.0\nsamples = 1\nvalue = 34.605", fillcolor="#e5813928"] ;
109 -> 110 ;
111 [label="mse = -0.0\nsamples = 1\nvalue = 34.65", fillcolor="#e5813928"] ;
109 -> 111 ;
112 [label="mse = -0.0\nsamples = 1\nvalue = 34.83", fillcolor="#e5813929"] ;
108 -> 112 ;
113 [label="mse = -0.0\nsamples = 1\nvalue = 35.55", fillcolor="#e581392b"] ;
107 -> 113 ;
114 [label="day_of_week_Thu <= 0.5\nmse = 0.064\nsamples = 5\nvalue = 37.656", fillcolor="#e5813933"] ;
102 -> 114 ;
115 [label="day <= 0.283\nmse = 0.006\nsamples = 4\nvalue = 37.777", fillcolor="#e5813934"] ;
114 -> 115 ;
116 [label="ws <= 0.287\nmse = 0.002\nsamples = 2\nvalue = 37.845", fillcolor="#e5813934"] ;
115 -> 116 ;
117 [label="mse = 0.0\nsamples = 1\nvalue = 37.8", fillcolor="#e5813934"] ;
116 -> 117 ;
118 [label="mse = -0.0\nsamples = 1\nvalue = 37.89", fillcolor="#e5813934"] ;
116 -> 118 ;
119 [label="mse = 0.0\nsamples = 2\nvalue = 37.71", fillcolor="#e5813933"] ;
115 -> 119 ;
120 [label="mse = -0.0\nsamples = 1\nvalue = 37.17", fillcolor="#e5813931"] ;
114 -> 120 ;
121 [label="ws <= 0.277\nmse = 4.662\nsamples = 4\nvalue = 32.175", fillcolor="#e581391f"] ;
101 -> 121 ;
122 [label="day <= 0.383\nmse = 2.247\nsamples = 3\nvalue = 32.922", fillcolor="#e5813921"] ;
121 -> 122 ;
123 [label="mse = 0.0\nsamples = 1\nvalue = 35.91", fillcolor="#e581392d"] ;
122 -> 123 ;
124 [label="week_day_end_day <= 0.5\nmse = 0.018\nsamples = 2\nvalue = 32.175", fillcolor="#e581391f"] ;
122 -> 124 ;
125 [label="mse = 0.0\nsamples = 1\nvalue = 32.04", fillcolor="#e581391e"] ;
124 -> 125 ;
126 [label="mse = 0.0\nsamples = 1\nvalue = 32.31", fillcolor="#e581391f"] ;
124 -> 126 ;
127 [label="mse = -0.0\nsamples = 1\nvalue = 28.44", fillcolor="#e5813910"] ;
121 -> 127 ;
128 [label="mse = -0.0\nsamples = 1\nvalue = 27.54", fillcolor="#e581390d"] ;
92 -> 128 ;
129 [label="pwat <= 0.582\nmse = 13.798\nsamples = 4\nvalue = 28.114", fillcolor="#e581390f"] ;
91 -> 129 ;
130 [label="season_day <= 0.544\nmse = 0.735\nsamples = 3\nvalue = 26.743", fillcolor="#e581390a"] ;
129 -> 130 ;
131 [label="week_day_end_end <= 0.5\nmse = 0.032\nsamples = 2\nvalue = 26.01", fillcolor="#e5813907"] ;
130 -> 131 ;
132 [label="mse = 0.0\nsamples = 1\nvalue = 25.83", fillcolor="#e5813906"] ;
131 -> 132 ;
133 [label="mse = 0.0\nsamples = 1\nvalue = 26.19", fillcolor="#e5813908"] ;
131 -> 133 ;
134 [label="mse = -0.0\nsamples = 1\nvalue = 27.72", fillcolor="#e581390e"] ;
130 -> 134 ;
135 [label="mse = 0.0\nsamples = 1\nvalue = 37.71", fillcolor="#e5813933"] ;
129 -> 135 ;
136 [label="season_day <= 0.828\nmse = 11.652\nsamples = 13\nvalue = 28.502", fillcolor="#e5813911"] ;
90 -> 136 ;
137 [label="day_of_week_Sat <= 0.5\nmse = 0.497\nsamples = 8\nvalue = 26.55", fillcolor="#e5813909"] ;
136 -> 137 ;
138 [label="season_day <= 0.683\nmse = 0.365\nsamples = 6\nvalue = 26.306", fillcolor="#e5813908"] ;
137 -> 138 ;
139 [label="biz_day_1 <= 0.5\nmse = 0.088\nsamples = 2\nvalue = 25.71", fillcolor="#e5813906"] ;
138 -> 139 ;
140 [label="mse = 0.0\nsamples = 1\nvalue = 25.29", fillcolor="#e5813904"] ;
139 -> 140 ;
141 [label="mse = 0.0\nsamples = 1\nvalue = 25.92", fillcolor="#e5813907"] ;
139 -> 141 ;
142 [label="ws <= 0.191\nmse = 0.107\nsamples = 4\nvalue = 26.752", fillcolor="#e581390a"] ;
138 -> 142 ;
143 [label="mse = 0.0\nsamples = 1\nvalue = 27.27", fillcolor="#e581390c"] ;
142 -> 143 ;
144 [label="week_day_end_end <= 0.5\nmse = 0.023\nsamples = 3\nvalue = 26.58", fillcolor="#e5813909"] ;
142 -> 144 ;
145 [label="ws <= 0.287\nmse = 0.002\nsamples = 2\nvalue = 26.685", fillcolor="#e581390a"] ;
144 -> 145 ;
146 [label="mse = 0.0\nsamples = 1\nvalue = 26.73", fillcolor="#e581390a"] ;
145 -> 146 ;
147 [label="mse = -0.0\nsamples = 1\nvalue = 26.64", fillcolor="#e581390a"] ;
145 -> 147 ;
148 [label="mse = -0.0\nsamples = 1\nvalue = 26.37", fillcolor="#e5813909"] ;
144 -> 148 ;
149 [label="ws <= 0.213\nmse = 0.018\nsamples = 2\nvalue = 27.405", fillcolor="#e581390c"] ;
137 -> 149 ;
150 [label="mse = 0.0\nsamples = 1\nvalue = 27.54", fillcolor="#e581390d"] ;
149 -> 150 ;
151 [label="mse = -0.0\nsamples = 1\nvalue = 27.27", fillcolor="#e581390c"] ;
149 -> 151 ;
152 [label="rh <= 0.308\nmse = 14.797\nsamples = 5\nvalue = 31.011", fillcolor="#e581391a"] ;
136 -> 152 ;
153 [label="rh <= 0.292\nmse = 0.007\nsamples = 2\nvalue = 26.58", fillcolor="#e5813909"] ;
152 -> 153 ;
154 [label="mse = 0.0\nsamples = 1\nvalue = 26.46", fillcolor="#e5813909"] ;
153 -> 154 ;
155 [label="mse = -0.0\nsamples = 1\nvalue = 26.64", fillcolor="#e581390a"] ;
153 -> 155 ;
156 [label="season_day <= 0.85\nmse = 0.115\nsamples = 3\nvalue = 34.335", fillcolor="#e5813927"] ;
152 -> 156 ;
157 [label="mse = 0.0\nsamples = 1\nvalue = 34.92", fillcolor="#e5813929"] ;
156 -> 157 ;
158 [label="temp <= 0.452\nmse = 0.002\nsamples = 2\nvalue = 34.14", fillcolor="#e5813926"] ;
156 -> 158 ;
159 [label="mse = 0.0\nsamples = 1\nvalue = 34.11", fillcolor="#e5813926"] ;
158 -> 159 ;
160 [label="mse = 0.0\nsamples = 1\nvalue = 34.2", fillcolor="#e5813926"] ;
158 -> 160 ;
161 [label="pwat <= 0.239\nmse = 14.104\nsamples = 514\nvalue = 27.777", fillcolor="#e581390e"] ;
3 -> 161 ;
162 [label="temp <= 0.374\nmse = 58.738\nsamples = 93\nvalue = 29.245", fillcolor="#e5813913"] ;
161 -> 162 ;
163 [label="pwat <= 0.233\nmse = 6.643\nsamples = 77\nvalue = 27.006", fillcolor="#e581390b"] ;
162 -> 163 ;
164 [label="biz_day_0 <= 0.5\nmse = 1.142\nsamples = 76\nvalue = 26.788", fillcolor="#e581390a"] ;
163 -> 164 ;
165 [label="temp <= 0.142\nmse = 1.133\nsamples = 55\nvalue = 27.034", fillcolor="#e581390b"] ;
164 -> 165 ;
166 [label="num_time <= 0.058\nmse = 0.708\nsamples = 11\nvalue = 26.036", fillcolor="#e5813907"] ;
165 -> 166 ;
167 [label="day_of_week_Tue <= 0.5\nmse = 0.248\nsamples = 9\nvalue = 26.496", fillcolor="#e5813909"] ;
166 -> 167 ;
168 [label="ws <= 0.133\nmse = 0.153\nsamples = 7\nvalue = 26.73", fillcolor="#e581390a"] ;
167 -> 168 ;
169 [label="pwat <= 0.045\nmse = 0.083\nsamples = 4\nvalue = 26.505", fillcolor="#e5813909"] ;
168 -> 169 ;
170 [label="mse = 0.0\nsamples = 1\nvalue = 26.91", fillcolor="#e581390b"] ;
169 -> 170 ;
171 [label="ws <= 0.085\nmse = 0.038\nsamples = 3\nvalue = 26.37", fillcolor="#e5813909"] ;
169 -> 171 ;
172 [label="temp <= 0.128\nmse = 0.002\nsamples = 2\nvalue = 26.235", fillcolor="#e5813908"] ;
171 -> 172 ;
173 [label="mse = 0.0\nsamples = 1\nvalue = 26.28", fillcolor="#e5813908"] ;
172 -> 173 ;
174 [label="mse = 0.0\nsamples = 1\nvalue = 26.19", fillcolor="#e5813908"] ;
172 -> 174 ;
175 [label="mse = -0.0\nsamples = 1\nvalue = 26.64", fillcolor="#e581390a"] ;
171 -> 175 ;
176 [label="temp <= 0.121\nmse = 0.088\nsamples = 3\nvalue = 27.03", fillcolor="#e581390b"] ;
168 -> 176 ;
177 [label="mse = 0.0\nsamples = 2\nvalue = 26.82", fillcolor="#e581390a"] ;
176 -> 177 ;
178 [label="mse = -0.0\nsamples = 1\nvalue = 27.45", fillcolor="#e581390d"] ;
176 -> 178 ;
179 [label="pwat <= 0.091\nmse = 0.045\nsamples = 2\nvalue = 25.95", fillcolor="#e5813907"] ;
167 -> 179 ;
180 [label="mse = 0.0\nsamples = 1\nvalue = 26.1", fillcolor="#e5813908"] ;
179 -> 180 ;
181 [label="mse = 0.0\nsamples = 1\nvalue = 25.65", fillcolor="#e5813906"] ;
179 -> 181 ;
182 [label="temp <= 0.123\nmse = 0.002\nsamples = 2\nvalue = 24.885", fillcolor="#e5813903"] ;
166 -> 182 ;
183 [label="mse = 0.0\nsamples = 1\nvalue = 24.93", fillcolor="#e5813903"] ;
182 -> 183 ;
184 [label="mse = 0.0\nsamples = 1\nvalue = 24.84", fillcolor="#e5813903"] ;
182 -> 184 ;
185 [label="ws <= 0.298\nmse = 0.97\nsamples = 44\nvalue = 27.243", fillcolor="#e581390c"] ;
165 -> 185 ;
186 [label="rh <= 0.085\nmse = 0.809\nsamples = 42\nvalue = 27.339", fillcolor="#e581390c"] ;
185 -> 186 ;
187 [label="num_time <= 0.047\nmse = 0.218\nsamples = 2\nvalue = 25.8", fillcolor="#e5813906"] ;
186 -> 187 ;
188 [label="mse = 0.0\nsamples = 1\nvalue = 25.47", fillcolor="#e5813905"] ;
187 -> 188 ;
189 [label="mse = -0.0\nsamples = 1\nvalue = 26.46", fillcolor="#e5813909"] ;
187 -> 189 ;
190 [label="ws <= 0.149\nmse = 0.716\nsamples = 40\nvalue = 27.415", fillcolor="#e581390c"] ;
186 -> 190 ;
191 [label="pwat <= 0.091\nmse = 0.726\nsamples = 25\nvalue = 27.093", fillcolor="#e581390b"] ;
190 -> 191 ;
192 [label="day_of_week_Wed <= 0.5\nmse = 1.217\nsamples = 2\nvalue = 28.32", fillcolor="#e5813910"] ;
191 -> 192 ;
193 [label="mse = 0.0\nsamples = 1\nvalue = 29.88", fillcolor="#e5813916"] ;
192 -> 193 ;
194 [label="mse = 0.0\nsamples = 1\nvalue = 27.54", fillcolor="#e581390d"] ;
192 -> 194 ;
195 [label="pwat <= 0.205\nmse = 0.511\nsamples = 23\nvalue = 26.97", fillcolor="#e581390b"] ;
191 -> 195 ;
196 [label="num_time <= 0.058\nmse = 0.462\nsamples = 17\nvalue = 26.69", fillcolor="#e581390a"] ;
195 -> 196 ;
197 [label="num_time <= 0.016\nmse = 0.294\nsamples = 15\nvalue = 26.58", fillcolor="#e5813909"] ;
196 -> 197 ;
198 [label="pwat <= 0.107\nmse = 0.273\nsamples = 4\nvalue = 27.248", fillcolor="#e581390c"] ;
197 -> 198 ;
199 [label="mse = 0.0\nsamples = 1\nvalue = 26.37", fillcolor="#e5813909"] ;
198 -> 199 ;
200 [label="temp <= 0.171\nmse = 0.022\nsamples = 3\nvalue = 27.54", fillcolor="#e581390d"] ;
198 -> 200 ;
201 [label="mse = 0.0\nsamples = 1\nvalue = 27.36", fillcolor="#e581390c"] ;
200 -> 201 ;
202 [label="day_of_week_Tue <= 0.5\nmse = 0.008\nsamples = 2\nvalue = 27.63", fillcolor="#e581390d"] ;
200 -> 202 ;
203 [label="mse = 0.0\nsamples = 1\nvalue = 27.54", fillcolor="#e581390d"] ;
202 -> 203 ;
204 [label="mse = 0.0\nsamples = 1\nvalue = 27.72", fillcolor="#e581390e"] ;
202 -> 204 ;
205 [label="pwat <= 0.11\nmse = 0.137\nsamples = 11\nvalue = 26.389", fillcolor="#e5813909"] ;
197 -> 205 ;
206 [label="mse = 0.0\nsamples = 1\nvalue = 27.0", fillcolor="#e581390b"] ;
205 -> 206 ;
207 [label="day_of_week_Fri <= 0.5\nmse = 0.087\nsamples = 10\nvalue = 26.287", fillcolor="#e5813908"] ;
205 -> 207 ;
208 [label="num_time <= 0.026\nmse = 0.06\nsamples = 8\nvalue = 26.37", fillcolor="#e5813909"] ;
207 -> 208 ;
209 [label="pwat <= 0.196\nmse = 0.002\nsamples = 3\nvalue = 26.528", fillcolor="#e5813909"] ;
208 -> 209 ;
210 [label="mse = 0.0\nsamples = 2\nvalue = 26.55", fillcolor="#e5813909"] ;
209 -> 210 ;
211 [label="mse = -0.0\nsamples = 1\nvalue = 26.46", fillcolor="#e5813909"] ;
209 -> 211 ;
212 [label="day_of_week_Wed <= 0.5\nmse = 0.071\nsamples = 5\nvalue = 26.265", fillcolor="#e5813908"] ;
208 -> 212 ;
213 [label="ws <= 0.09\nmse = 0.013\nsamples = 3\nvalue = 26.04", fillcolor="#e5813907"] ;
212 -> 213 ;
214 [label="mse = 0.0\nsamples = 1\nvalue = 26.19", fillcolor="#e5813908"] ;
213 -> 214 ;
215 [label="temp <= 0.304\nmse = 0.002\nsamples = 2\nvalue = 25.965", fillcolor="#e5813907"] ;
213 -> 215 ;
216 [label="mse = 0.0\nsamples = 1\nvalue = 25.92", fillcolor="#e5813907"] ;
215 -> 216 ;
217 [label="mse = -0.0\nsamples = 1\nvalue = 26.01", fillcolor="#e5813907"] ;
215 -> 217 ;
218 [label="num_time <= 0.047\nmse = 0.029\nsamples = 2\nvalue = 26.49", fillcolor="#e5813909"] ;
212 -> 218 ;
219 [label="mse = 0.0\nsamples = 1\nvalue = 26.37", fillcolor="#e5813909"] ;
218 -> 219 ;
220 [label="mse = 0.0\nsamples = 1\nvalue = 26.73", fillcolor="#e581390a"] ;
218 -> 220 ;
221 [label="day <= 0.3\nmse = 0.018\nsamples = 2\nvalue = 25.875", fillcolor="#e5813907"] ;
207 -> 221 ;
222 [label="mse = 0.0\nsamples = 1\nvalue = 26.01", fillcolor="#e5813907"] ;
221 -> 222 ;
223 [label="mse = 0.0\nsamples = 1\nvalue = 25.74", fillcolor="#e5813906"] ;
221 -> 223 ;
224 [label="ws <= 0.112\nmse = 0.893\nsamples = 2\nvalue = 27.675", fillcolor="#e581390d"] ;
196 -> 224 ;
225 [label="mse = 0.0\nsamples = 1\nvalue = 28.62", fillcolor="#e5813911"] ;
224 -> 225 ;
226 [label="mse = 0.0\nsamples = 1\nvalue = 26.73", fillcolor="#e581390a"] ;
224 -> 226 ;
227 [label="num_time <= 0.032\nmse = 0.137\nsamples = 6\nvalue = 27.531", fillcolor="#e581390d"] ;
195 -> 227 ;
228 [label="day <= 0.567\nmse = 0.007\nsamples = 2\nvalue = 28.05", fillcolor="#e581390f"] ;
227 -> 228 ;
229 [label="mse = 0.0\nsamples = 1\nvalue = 27.99", fillcolor="#e581390f"] ;
228 -> 229 ;
230 [label="mse = -0.0\nsamples = 1\nvalue = 28.17", fillcolor="#e581390f"] ;
228 -> 230 ;
231 [label="temp <= 0.224\nmse = 0.027\nsamples = 4\nvalue = 27.309", fillcolor="#e581390c"] ;
227 -> 231 ;
232 [label="mse = 0.0\nsamples = 1\nvalue = 26.91", fillcolor="#e581390b"] ;
231 -> 232 ;
233 [label="day_of_week_Fri <= 0.5\nmse = 0.001\nsamples = 3\nvalue = 27.375", fillcolor="#e581390c"] ;
231 -> 233 ;
234 [label="mse = 0.0\nsamples = 1\nvalue = 27.36", fillcolor="#e581390c"] ;
233 -> 234 ;
235 [label="temp <= 0.229\nmse = 0.002\nsamples = 2\nvalue = 27.39", fillcolor="#e581390c"] ;
233 -> 235 ;
236 [label="mse = 0.0\nsamples = 1\nvalue = 27.36", fillcolor="#e581390c"] ;
235 -> 236 ;
237 [label="mse = -0.0\nsamples = 1\nvalue = 27.45", fillcolor="#e581390d"] ;
235 -> 237 ;
238 [label="temp <= 0.2\nmse = 0.439\nsamples = 15\nvalue = 27.794", fillcolor="#e581390e"] ;
190 -> 238 ;
239 [label="ws <= 0.165\nmse = 0.192\nsamples = 4\nvalue = 27.219", fillcolor="#e581390c"] ;
238 -> 239 ;
240 [label="mse = 0.0\nsamples = 1\nvalue = 26.19", fillcolor="#e5813908"] ;
239 -> 240 ;
241 [label="num_time <= 0.053\nmse = 0.018\nsamples = 3\nvalue = 27.39", fillcolor="#e581390c"] ;
239 -> 241 ;
242 [label="mse = 0.0\nsamples = 2\nvalue = 27.45", fillcolor="#e581390d"] ;
241 -> 242 ;
243 [label="mse = -0.0\nsamples = 1\nvalue = 27.09", fillcolor="#e581390b"] ;
241 -> 243 ;
244 [label="ws <= 0.234\nmse = 0.375\nsamples = 11\nvalue = 27.986", fillcolor="#e581390f"] ;
238 -> 244 ;
245 [label="temp <= 0.336\nmse = 0.304\nsamples = 8\nvalue = 28.192", fillcolor="#e581390f"] ;
244 -> 245 ;
246 [label="ws <= 0.165\nmse = 0.429\nsamples = 5\nvalue = 28.0", fillcolor="#e581390f"] ;
245 -> 246 ;
247 [label="num_time <= 0.037\nmse = 0.022\nsamples = 3\nvalue = 28.247", fillcolor="#e5813910"] ;
246 -> 247 ;
248 [label="mse = 0.0\nsamples = 1\nvalue = 28.08", fillcolor="#e581390f"] ;
247 -> 248 ;
249 [label="temp <= 0.208\nmse = 0.002\nsamples = 2\nvalue = 28.373", fillcolor="#e5813910"] ;
247 -> 249 ;
250 [label="mse = 0.0\nsamples = 1\nvalue = 28.44", fillcolor="#e5813910"] ;
249 -> 250 ;
251 [label="mse = -0.0\nsamples = 1\nvalue = 28.35", fillcolor="#e5813910"] ;
249 -> 251 ;
252 [label="temp <= 0.287\nmse = 0.893\nsamples = 2\nvalue = 27.135", fillcolor="#e581390b"] ;
246 -> 252 ;
253 [label="mse = 0.0\nsamples = 1\nvalue = 26.19", fillcolor="#e5813908"] ;
252 -> 253 ;
254 [label="mse = 0.0\nsamples = 1\nvalue = 28.08", fillcolor="#e581390f"] ;
252 -> 254 ;
255 [label="ws <= 0.191\nmse = 0.035\nsamples = 3\nvalue = 28.44", fillcolor="#e5813910"] ;
245 -> 255 ;
256 [label="mse = 0.0\nsamples = 1\nvalue = 28.17", fillcolor="#e581390f"] ;
255 -> 256 ;
257 [label="pwat <= 0.19\nmse = 0.008\nsamples = 2\nvalue = 28.548", fillcolor="#e5813911"] ;
255 -> 257 ;
258 [label="mse = 0.0\nsamples = 1\nvalue = 28.44", fillcolor="#e5813910"] ;
257 -> 258 ;
259 [label="mse = -0.0\nsamples = 1\nvalue = 28.62", fillcolor="#e5813911"] ;
257 -> 259 ;
260 [label="temp <= 0.35\nmse = 0.025\nsamples = 3\nvalue = 27.324", fillcolor="#e581390c"] ;
244 -> 260 ;
261 [label="ws <= 0.261\nmse = 0.002\nsamples = 2\nvalue = 27.248", fillcolor="#e581390c"] ;
260 -> 261 ;
262 [label="mse = 0.0\nsamples = 1\nvalue = 27.27", fillcolor="#e581390c"] ;
261 -> 262 ;
263 [label="mse = -0.0\nsamples = 1\nvalue = 27.18", fillcolor="#e581390c"] ;
261 -> 263 ;
264 [label="mse = 0.0\nsamples = 1\nvalue = 27.63", fillcolor="#e581390d"] ;
260 -> 264 ;
265 [label="temp <= 0.363\nmse = 0.016\nsamples = 2\nvalue = 25.2", fillcolor="#e5813904"] ;
185 -> 265 ;
266 [label="mse = 0.0\nsamples = 1\nvalue = 25.38", fillcolor="#e5813905"] ;
265 -> 266 ;
267 [label="mse = 0.0\nsamples = 1\nvalue = 25.11", fillcolor="#e5813904"] ;
265 -> 267 ;
268 [label="temp <= 0.176\nmse = 0.698\nsamples = 21\nvalue = 26.218", fillcolor="#e5813908"] ;
164 -> 268 ;
269 [label="ws <= 0.117\nmse = 0.32\nsamples = 4\nvalue = 27.257", fillcolor="#e581390c"] ;
268 -> 269 ;
270 [label="pwat <= 0.162\nmse = 0.018\nsamples = 3\nvalue = 26.775", fillcolor="#e581390a"] ;
269 -> 270 ;
271 [label="mse = 0.0\nsamples = 1\nvalue = 26.91", fillcolor="#e581390b"] ;
270 -> 271 ;
272 [label="mse = -0.0\nsamples = 2\nvalue = 26.64", fillcolor="#e581390a"] ;
270 -> 272 ;
273 [label="mse = 0.0\nsamples = 1\nvalue = 27.9", fillcolor="#e581390e"] ;
269 -> 273 ;
274 [label="ws <= 0.255\nmse = 0.456\nsamples = 17\nvalue = 25.959", fillcolor="#e5813907"] ;
268 -> 274 ;
275 [label="season_day <= 0.206\nmse = 0.248\nsamples = 15\nvalue = 25.801", fillcolor="#e5813906"] ;
274 -> 275 ;
276 [label="ws <= 0.239\nmse = 0.184\nsamples = 11\nvalue = 25.645", fillcolor="#e5813906"] ;
275 -> 276 ;
277 [label="pwat <= 0.17\nmse = 0.059\nsamples = 9\nvalue = 25.56", fillcolor="#e5813905"] ;
276 -> 277 ;
278 [label="temp <= 0.2\nmse = 0.04\nsamples = 5\nvalue = 25.39", fillcolor="#e5813905"] ;
277 -> 278 ;
279 [label="num_time <= 0.058\nmse = 0.045\nsamples = 2\nvalue = 25.17", fillcolor="#e5813904"] ;
278 -> 279 ;
280 [label="mse = 0.0\nsamples = 1\nvalue = 25.02", fillcolor="#e5813903"] ;
279 -> 280 ;
281 [label="mse = 0.0\nsamples = 1\nvalue = 25.47", fillcolor="#e5813905"] ;
279 -> 281 ;
282 [label="temp <= 0.302\nmse = 0.002\nsamples = 3\nvalue = 25.5", fillcolor="#e5813905"] ;
278 -> 282 ;
283 [label="mse = 0.0\nsamples = 2\nvalue = 25.47", fillcolor="#e5813905"] ;
282 -> 283 ;
284 [label="mse = -0.0\nsamples = 1\nvalue = 25.56", fillcolor="#e5813905"] ;
282 -> 284 ;
285 [label="num_time <= 0.037\nmse = 0.011\nsamples = 4\nvalue = 25.751", fillcolor="#e5813906"] ;
277 -> 285 ;
286 [label="mse = 0.0\nsamples = 1\nvalue = 25.65", fillcolor="#e5813906"] ;
285 -> 286 ;
287 [label="rh <= 0.127\nmse = 0.008\nsamples = 3\nvalue = 25.812", fillcolor="#e5813906"] ;
285 -> 287 ;
288 [label="mse = 0.0\nsamples = 1\nvalue = 25.65", fillcolor="#e5813906"] ;
287 -> 288 ;
289 [label="temp <= 0.235\nmse = 0.002\nsamples = 2\nvalue = 25.852", fillcolor="#e5813907"] ;
287 -> 289 ;
290 [label="mse = 0.0\nsamples = 1\nvalue = 25.92", fillcolor="#e5813907"] ;
289 -> 290 ;
291 [label="mse = 0.0\nsamples = 1\nvalue = 25.83", fillcolor="#e5813906"] ;
289 -> 291 ;
292 [label="pwat <= 0.121\nmse = 0.656\nsamples = 2\nvalue = 26.37", fillcolor="#e5813909"] ;
276 -> 292 ;
293 [label="mse = 0.0\nsamples = 1\nvalue = 27.18", fillcolor="#e581390c"] ;
292 -> 293 ;
294 [label="mse = 0.0\nsamples = 1\nvalue = 25.56", fillcolor="#e5813905"] ;
292 -> 294 ;
295 [label="rh <= 0.149\nmse = 0.131\nsamples = 4\nvalue = 26.295", fillcolor="#e5813908"] ;
275 -> 295 ;
296 [label="mse = 0.0\nsamples = 1\nvalue = 27.09", fillcolor="#e581390b"] ;
295 -> 296 ;
297 [label="season_day <= 0.244\nmse = 0.005\nsamples = 3\nvalue = 26.136", fillcolor="#e5813908"] ;
295 -> 297 ;
298 [label="mse = 0.0\nsamples = 1\nvalue = 26.28", fillcolor="#e5813908"] ;
297 -> 298 ;
299 [label="mse = 0.0\nsamples = 2\nvalue = 26.1", fillcolor="#e5813908"] ;
297 -> 299 ;
300 [label="day_of_week_Sat <= 0.5\nmse = 0.259\nsamples = 2\nvalue = 27.27", fillcolor="#e581390c"] ;
274 -> 300 ;
301 [label="mse = 0.0\nsamples = 1\nvalue = 27.99", fillcolor="#e581390f"] ;
300 -> 301 ;
302 [label="mse = -0.0\nsamples = 1\nvalue = 26.91", fillcolor="#e581390b"] ;
300 -> 302 ;
303 [label="mse = 0.0\nsamples = 1\nvalue = 52.29", fillcolor="#e581396b"] ;
163 -> 303 ;
304 [label="season_day <= 0.211\nmse = 169.153\nsamples = 16\nvalue = 40.159", fillcolor="#e581393d"] ;
162 -> 304 ;
305 [label="pwat <= 0.156\nmse = 5.411\nsamples = 8\nvalue = 53.018", fillcolor="#e581396d"] ;
304 -> 305 ;
306 [label="num_time <= 0.037\nmse = 0.841\nsamples = 4\nvalue = 50.436", fillcolor="#e5813964"] ;
305 -> 306 ;
307 [label="num_time <= 0.026\nmse = 0.13\nsamples = 2\nvalue = 51.21", fillcolor="#e5813967"] ;
306 -> 307 ;
308 [label="mse = 0.0\nsamples = 1\nvalue = 51.57", fillcolor="#e5813968"] ;
307 -> 308 ;
309 [label="mse = 0.0\nsamples = 1\nvalue = 50.85", fillcolor="#e5813965"] ;
307 -> 309 ;
310 [label="rh <= 0.165\nmse = 0.65\nsamples = 2\nvalue = 49.92", fillcolor="#e5813962"] ;
306 -> 310 ;
311 [label="mse = 0.0\nsamples = 1\nvalue = 48.78", fillcolor="#e581395d"] ;
310 -> 311 ;
312 [label="mse = 0.0\nsamples = 1\nvalue = 50.49", fillcolor="#e5813964"] ;
310 -> 312 ;
313 [label="num_time <= 0.037\nmse = 0.516\nsamples = 4\nvalue = 54.861", fillcolor="#e5813974"] ;
305 -> 313 ;
314 [label="pwat <= 0.198\nmse = 0.123\nsamples = 3\nvalue = 54.6", fillcolor="#e5813973"] ;
313 -> 314 ;
315 [label="mse = 0.0\nsamples = 1\nvalue = 53.82", fillcolor="#e5813971"] ;
314 -> 315 ;
316 [label="temp <= 0.391\nmse = 0.002\nsamples = 2\nvalue = 54.756", fillcolor="#e5813974"] ;
314 -> 316 ;
317 [label="mse = 0.0\nsamples = 1\nvalue = 54.81", fillcolor="#e5813974"] ;
316 -> 317 ;
318 [label="mse = 0.0\nsamples = 1\nvalue = 54.72", fillcolor="#e5813974"] ;
316 -> 318 ;
319 [label="mse = -0.0\nsamples = 1\nvalue = 56.43", fillcolor="#e581397a"] ;
313 -> 319 ;
320 [label="num_time <= 0.016\nmse = 2.2\nsamples = 8\nvalue = 27.3", fillcolor="#e581390c"] ;
304 -> 320 ;
321 [label="season_day <= 0.483\nmse = 0.535\nsamples = 3\nvalue = 29.16", fillcolor="#e5813913"] ;
320 -> 321 ;
322 [label="season_day <= 0.25\nmse = 0.032\nsamples = 2\nvalue = 28.44", fillcolor="#e5813910"] ;
321 -> 322 ;
323 [label="mse = 0.0\nsamples = 1\nvalue = 28.26", fillcolor="#e5813910"] ;
322 -> 323 ;
324 [label="mse = 0.0\nsamples = 1\nvalue = 28.62", fillcolor="#e5813911"] ;
322 -> 324 ;
325 [label="mse = 0.0\nsamples = 1\nvalue = 29.88", fillcolor="#e5813916"] ;
321 -> 325 ;
326 [label="day <= 0.5\nmse = 0.437\nsamples = 5\nvalue = 26.37", fillcolor="#e5813909"] ;
320 -> 326 ;
327 [label="mse = 0.0\nsamples = 2\nvalue = 25.56", fillcolor="#e5813905"] ;
326 -> 327 ;
328 [label="rh <= 0.196\nmse = 0.07\nsamples = 3\nvalue = 26.856", fillcolor="#e581390a"] ;
326 -> 328 ;
329 [label="pwat <= 0.153\nmse = 0.065\nsamples = 2\nvalue = 27.0", fillcolor="#e581390b"] ;
328 -> 329 ;
330 [label="mse = 0.0\nsamples = 1\nvalue = 26.82", fillcolor="#e581390a"] ;
329 -> 330 ;
331 [label="mse = -0.0\nsamples = 1\nvalue = 27.36", fillcolor="#e581390c"] ;
329 -> 331 ;
332 [label="mse = -0.0\nsamples = 1\nvalue = 26.64", fillcolor="#e581390a"] ;
328 -> 332 ;
333 [label="num_time <= 0.058\nmse = 3.837\nsamples = 421\nvalue = 27.458", fillcolor="#e581390d"] ;
161 -> 333 ;
334 [label="ws <= 0.144\nmse = 3.001\nsamples = 352\nvalue = 27.229", fillcolor="#e581390c"] ;
333 -> 334 ;
335 [label="day <= 0.983\nmse = 5.405\nsamples = 103\nvalue = 27.798", fillcolor="#e581390e"] ;
334 -> 335 ;
336 [label="day <= 0.083\nmse = 3.289\nsamples = 100\nvalue = 27.566", fillcolor="#e581390d"] ;
335 -> 336 ;
337 [label="rh <= 0.304\nmse = 2.177\nsamples = 3\nvalue = 36.302", fillcolor="#e581392e"] ;
336 -> 337 ;
338 [label="mse = 0.0\nsamples = 1\nvalue = 38.856", fillcolor="#e5813938"] ;
337 -> 338 ;
339 [label="rh <= 0.326\nmse = 0.002\nsamples = 2\nvalue = 35.45", fillcolor="#e581392b"] ;
337 -> 339 ;
340 [label="mse = 0.0\nsamples = 1\nvalue = 35.386", fillcolor="#e581392b"] ;
339 -> 340 ;
341 [label="mse = 0.0\nsamples = 1\nvalue = 35.483", fillcolor="#e581392b"] ;
339 -> 341 ;
342 [label="day <= 0.917\nmse = 1.257\nsamples = 97\nvalue = 27.336", fillcolor="#e581390c"] ;
336 -> 342 ;
343 [label="day <= 0.817\nmse = 0.979\nsamples = 92\nvalue = 27.22", fillcolor="#e581390c"] ;
342 -> 343 ;
344 [label="num_time <= 0.026\nmse = 0.754\nsamples = 78\nvalue = 27.4", fillcolor="#e581390c"] ;
343 -> 344 ;
345 [label="pwat <= 0.303\nmse = 0.48\nsamples = 32\nvalue = 27.895", fillcolor="#e581390e"] ;
344 -> 345 ;
346 [label="ws <= 0.096\nmse = 0.253\nsamples = 5\nvalue = 26.85", fillcolor="#e581390a"] ;
345 -> 346 ;
347 [label="mse = 0.0\nsamples = 2\nvalue = 27.45", fillcolor="#e581390d"] ;
346 -> 347 ;
348 [label="pwat <= 0.274\nmse = 0.109\nsamples = 3\nvalue = 26.55", fillcolor="#e5813909"] ;
346 -> 348 ;
349 [label="pwat <= 0.246\nmse = 0.016\nsamples = 2\nvalue = 26.73", fillcolor="#e581390a"] ;
348 -> 349 ;
350 [label="mse = 0.0\nsamples = 1\nvalue = 26.91", fillcolor="#e581390b"] ;
349 -> 350 ;
351 [label="mse = 0.0\nsamples = 1\nvalue = 26.64", fillcolor="#e581390a"] ;
349 -> 351 ;
352 [label="mse = -0.0\nsamples = 1\nvalue = 26.01", fillcolor="#e5813907"] ;
348 -> 352 ;
353 [label="pwat <= 0.581\nmse = 0.357\nsamples = 27\nvalue = 28.023", fillcolor="#e581390f"] ;
345 -> 353 ;
354 [label="rh <= 0.287\nmse = 0.351\nsamples = 22\nvalue = 27.898", fillcolor="#e581390e"] ;
353 -> 354 ;
355 [label="temp <= 0.394\nmse = 0.326\nsamples = 9\nvalue = 28.248", fillcolor="#e5813910"] ;
354 -> 355 ;
356 [label="day_of_week_Mon <= 0.5\nmse = 0.147\nsamples = 4\nvalue = 28.725", fillcolor="#e5813911"] ;
355 -> 356 ;
357 [label="season_day <= 0.339\nmse = 0.013\nsamples = 3\nvalue = 29.1", fillcolor="#e5813913"] ;
356 -> 357 ;
358 [label="mse = 0.0\nsamples = 1\nvalue = 29.25", fillcolor="#e5813913"] ;
357 -> 358 ;
359 [label="day_of_week_Fri <= 0.5\nmse = 0.002\nsamples = 2\nvalue = 29.025", fillcolor="#e5813913"] ;
357 -> 359 ;
360 [label="mse = 0.0\nsamples = 1\nvalue = 29.07", fillcolor="#e5813913"] ;
359 -> 360 ;
361 [label="mse = 0.0\nsamples = 1\nvalue = 28.98", fillcolor="#e5813912"] ;
359 -> 361 ;
362 [label="mse = 0.0\nsamples = 1\nvalue = 28.35", fillcolor="#e5813910"] ;
356 -> 362 ;
363 [label="num_time <= 0.016\nmse = 0.193\nsamples = 5\nvalue = 27.93", fillcolor="#e581390e"] ;
355 -> 363 ;
364 [label="day <= 0.583\nmse = 0.048\nsamples = 3\nvalue = 28.2", fillcolor="#e581390f"] ;
363 -> 364 ;
365 [label="week_day_end_end <= 0.5\nmse = 0.007\nsamples = 2\nvalue = 28.41", fillcolor="#e5813910"] ;
364 -> 365 ;
366 [label="mse = 0.0\nsamples = 1\nvalue = 28.53", fillcolor="#e5813911"] ;
365 -> 366 ;
367 [label="mse = 0.0\nsamples = 1\nvalue = 28.35", fillcolor="#e5813910"] ;
365 -> 367 ;
368 [label="mse = 0.0\nsamples = 1\nvalue = 27.99", fillcolor="#e581390f"] ;
364 -> 368 ;
369 [label="rh <= 0.258\nmse = 0.045\nsamples = 2\nvalue = 27.39", fillcolor="#e581390c"] ;
363 -> 369 ;
370 [label="mse = 0.0\nsamples = 1\nvalue = 27.54", fillcolor="#e581390d"] ;
369 -> 370 ;
371 [label="mse = -0.0\nsamples = 1\nvalue = 27.09", fillcolor="#e581390b"] ;
369 -> 371 ;
372 [label="rh <= 0.346\nmse = 0.236\nsamples = 13\nvalue = 27.669", fillcolor="#e581390d"] ;
354 -> 372 ;
373 [label="rh <= 0.338\nmse = 0.262\nsamples = 9\nvalue = 27.415", fillcolor="#e581390c"] ;
372 -> 373 ;
374 [label="rh <= 0.308\nmse = 0.149\nsamples = 8\nvalue = 27.518", fillcolor="#e581390d"] ;
373 -> 374 ;
375 [label="day <= 0.6\nmse = 0.013\nsamples = 6\nvalue = 27.32", fillcolor="#e581390c"] ;
374 -> 375 ;
376 [label="ws <= 0.122\nmse = 0.002\nsamples = 2\nvalue = 27.428", fillcolor="#e581390d"] ;
375 -> 376 ;
377 [label="mse = 0.0\nsamples = 1\nvalue = 27.36", fillcolor="#e581390c"] ;
376 -> 377 ;
378 [label="mse = 0.0\nsamples = 1\nvalue = 27.45", fillcolor="#e581390d"] ;
376 -> 378 ;
379 [label="rh <= 0.29\nmse = 0.005\nsamples = 4\nvalue = 27.234", fillcolor="#e581390c"] ;
375 -> 379 ;
380 [label="mse = 0.0\nsamples = 1\nvalue = 27.09", fillcolor="#e581390b"] ;
379 -> 380 ;
381 [label="mse = 0.0\nsamples = 3\nvalue = 27.27", fillcolor="#e581390c"] ;
379 -> 381 ;
382 [label="day_of_week_Sat <= 0.5\nmse = 0.088\nsamples = 2\nvalue = 28.11", fillcolor="#e581390f"] ;
374 -> 382 ;
383 [label="mse = 0.0\nsamples = 1\nvalue = 27.9", fillcolor="#e581390e"] ;
382 -> 383 ;
384 [label="mse = -0.0\nsamples = 1\nvalue = 28.53", fillcolor="#e5813911"] ;
382 -> 384 ;
385 [label="mse = -0.0\nsamples = 1\nvalue = 26.19", fillcolor="#e5813908"] ;
373 -> 385 ;
386 [label="num_time <= 0.016\nmse = 0.009\nsamples = 4\nvalue = 27.999", fillcolor="#e581390f"] ;
372 -> 386 ;
387 [label="season_day <= 0.256\nmse = 0.007\nsamples = 3\nvalue = 28.041", fillcolor="#e581390f"] ;
386 -> 387 ;
388 [label="mse = 0.0\nsamples = 1\nvalue = 28.17", fillcolor="#e581390f"] ;
387 -> 388 ;
389 [label="mse = -0.0\nsamples = 2\nvalue = 27.99", fillcolor="#e581390f"] ;
387 -> 389 ;
390 [label="mse = 0.0\nsamples = 1\nvalue = 27.9", fillcolor="#e581390e"] ;
386 -> 390 ;
391 [label="day_of_week_Sat <= 0.5\nmse = 0.135\nsamples = 5\nvalue = 28.456", fillcolor="#e5813910"] ;
353 -> 391 ;
392 [label="num_time <= 0.016\nmse = 0.024\nsamples = 4\nvalue = 28.35", fillcolor="#e5813910"] ;
391 -> 392 ;
393 [label="rh <= 0.358\nmse = 0.008\nsamples = 3\nvalue = 28.282", fillcolor="#e5813910"] ;
392 -> 393 ;
394 [label="mse = 0.0\nsamples = 1\nvalue = 28.17", fillcolor="#e581390f"] ;
393 -> 394 ;
395 [label="mse = 0.0\nsamples = 2\nvalue = 28.35", fillcolor="#e5813910"] ;
393 -> 395 ;
396 [label="mse = -0.0\nsamples = 1\nvalue = 28.62", fillcolor="#e5813911"] ;
392 -> 396 ;
397 [label="mse = 0.0\nsamples = 1\nvalue = 29.52", fillcolor="#e5813914"] ;
391 -> 397 ;
398 [label="rh <= 0.442\nmse = 0.616\nsamples = 46\nvalue = 26.999", fillcolor="#e581390b"] ;
344 -> 398 ;
399 [label="rh <= 0.275\nmse = 0.459\nsamples = 38\nvalue = 27.174", fillcolor="#e581390c"] ;
398 -> 399 ;
400 [label="rh <= 0.248\nmse = 0.142\nsamples = 5\nvalue = 28.185", fillcolor="#e581390f"] ;
399 -> 400 ;
401 [label="mse = 0.0\nsamples = 1\nvalue = 28.98", fillcolor="#e5813912"] ;
400 -> 401 ;
402 [label="temp <= 0.358\nmse = 0.018\nsamples = 4\nvalue = 28.026", fillcolor="#e581390f"] ;
400 -> 402 ;
403 [label="mse = 0.0\nsamples = 1\nvalue = 28.17", fillcolor="#e581390f"] ;
402 -> 403 ;
404 [label="num_time <= 0.047\nmse = 0.016\nsamples = 3\nvalue = 27.99", fillcolor="#e581390f"] ;
402 -> 404 ;
405 [label="day <= 0.45\nmse = 0.007\nsamples = 2\nvalue = 28.05", fillcolor="#e581390f"] ;
404 -> 405 ;
406 [label="mse = 0.0\nsamples = 1\nvalue = 28.17", fillcolor="#e581390f"] ;
405 -> 406 ;
407 [label="mse = -0.0\nsamples = 1\nvalue = 27.99", fillcolor="#e581390f"] ;
405 -> 407 ;
408 [label="mse = -0.0\nsamples = 1\nvalue = 27.81", fillcolor="#e581390e"] ;
404 -> 408 ;
409 [label="season_day <= 0.439\nmse = 0.365\nsamples = 33\nvalue = 27.057", fillcolor="#e581390b"] ;
399 -> 409 ;
410 [label="pwat <= 0.444\nmse = 0.479\nsamples = 15\nvalue = 27.409", fillcolor="#e581390c"] ;
409 -> 410 ;
411 [label="season_day <= 0.406\nmse = 0.377\nsamples = 14\nvalue = 27.285", fillcolor="#e581390c"] ;
410 -> 411 ;
412 [label="rh <= 0.294\nmse = 0.2\nsamples = 10\nvalue = 27.045", fillcolor="#e581390b"] ;
411 -> 412 ;
413 [label="ws <= 0.08\nmse = 0.038\nsamples = 2\nvalue = 27.607", fillcolor="#e581390d"] ;
412 -> 413 ;
414 [label="mse = 0.0\nsamples = 1\nvalue = 27.27", fillcolor="#e581390c"] ;
413 -> 414 ;
415 [label="mse = 0.0\nsamples = 1\nvalue = 27.72", fillcolor="#e581390e"] ;
413 -> 415 ;
416 [label="temp <= 0.229\nmse = 0.087\nsamples = 8\nvalue = 26.82", fillcolor="#e581390a"] ;
412 -> 416 ;
417 [label="mse = 0.0\nsamples = 1\nvalue = 26.19", fillcolor="#e5813908"] ;
416 -> 417 ;
418 [label="temp <= 0.283\nmse = 0.048\nsamples = 7\nvalue = 26.89", fillcolor="#e581390a"] ;
416 -> 418 ;
419 [label="pwat <= 0.307\nmse = 0.002\nsamples = 2\nvalue = 27.225", fillcolor="#e581390c"] ;
418 -> 419 ;
420 [label="mse = 0.0\nsamples = 1\nvalue = 27.18", fillcolor="#e581390c"] ;
419 -> 420 ;
421 [label="mse = -0.0\nsamples = 1\nvalue = 27.27", fillcolor="#e581390c"] ;
419 -> 421 ;
422 [label="rh <= 0.338\nmse = 0.02\nsamples = 5\nvalue = 26.794", fillcolor="#e581390a"] ;
418 -> 422 ;
423 [label="rh <= 0.3\nmse = 0.004\nsamples = 3\nvalue = 26.91", fillcolor="#e581390b"] ;
422 -> 423 ;
424 [label="mse = 0.0\nsamples = 1\nvalue = 26.82", fillcolor="#e581390a"] ;
423 -> 424 ;
425 [label="day_of_week_Mon <= 0.5\nmse = 0.002\nsamples = 2\nvalue = 26.94", fillcolor="#e581390b"] ;
423 -> 425 ;
426 [label="mse = 0.0\nsamples = 1\nvalue = 26.91", fillcolor="#e581390b"] ;
425 -> 426 ;
427 [label="mse = 0.0\nsamples = 1\nvalue = 27.0", fillcolor="#e581390b"] ;
425 -> 427 ;
428 [label="mse = 0.0\nsamples = 2\nvalue = 26.64", fillcolor="#e581390a"] ;
422 -> 428 ;
429 [label="temp <= 0.319\nmse = 0.091\nsamples = 4\nvalue = 28.125", fillcolor="#e581390f"] ;
411 -> 429 ;
430 [label="num_time <= 0.037\nmse = 0.077\nsamples = 3\nvalue = 28.02", fillcolor="#e581390f"] ;
429 -> 430 ;
431 [label="mse = 0.0\nsamples = 1\nvalue = 27.63", fillcolor="#e581390d"] ;
430 -> 431 ;
432 [label="season_day <= 0.422\nmse = 0.002\nsamples = 2\nvalue = 28.215", fillcolor="#e5813910"] ;
430 -> 432 ;
433 [label="mse = 0.0\nsamples = 1\nvalue = 28.17", fillcolor="#e581390f"] ;
432 -> 433 ;
434 [label="mse = -0.0\nsamples = 1\nvalue = 28.26", fillcolor="#e5813910"] ;
432 -> 434 ;
435 [label="mse = 0.0\nsamples = 1\nvalue = 28.44", fillcolor="#e5813910"] ;
429 -> 435 ;
436 [label="mse = 0.0\nsamples = 1\nvalue = 28.53", fillcolor="#e5813911"] ;
410 -> 436 ;
437 [label="pwat <= 0.435\nmse = 0.167\nsamples = 18\nvalue = 26.837", fillcolor="#e581390a"] ;
409 -> 437 ;
438 [label="rh <= 0.283\nmse = 0.015\nsamples = 3\nvalue = 26.136", fillcolor="#e5813908"] ;
437 -> 438 ;
439 [label="mse = 0.0\nsamples = 1\nvalue = 26.28", fillcolor="#e5813908"] ;
438 -> 439 ;
440 [label="day_of_week_Fri <= 0.5\nmse = 0.002\nsamples = 2\nvalue = 26.04", fillcolor="#e5813907"] ;
438 -> 440 ;
441 [label="mse = 0.0\nsamples = 1\nvalue = 26.1", fillcolor="#e5813908"] ;
440 -> 441 ;
442 [label="mse = 0.0\nsamples = 1\nvalue = 26.01", fillcolor="#e5813907"] ;
440 -> 442 ;
443 [label="pwat <= 0.602\nmse = 0.087\nsamples = 15\nvalue = 26.967", fillcolor="#e581390b"] ;
437 -> 443 ;
444 [label="day_of_week_Thu <= 0.5\nmse = 0.041\nsamples = 12\nvalue = 26.883", fillcolor="#e581390a"] ;
443 -> 444 ;
445 [label="pwat <= 0.52\nmse = 0.028\nsamples = 9\nvalue = 26.825", fillcolor="#e581390a"] ;
444 -> 445 ;
446 [label="mse = 0.0\nsamples = 2\nvalue = 26.64", fillcolor="#e581390a"] ;
445 -> 446 ;
447 [label="num_time <= 0.037\nmse = 0.021\nsamples = 7\nvalue = 26.891", fillcolor="#e581390a"] ;
445 -> 447 ;
448 [label="pwat <= 0.557\nmse = 0.007\nsamples = 3\nvalue = 26.781", fillcolor="#e581390a"] ;
447 -> 448 ;
449 [label="mse = 0.0\nsamples = 1\nvalue = 26.91", fillcolor="#e581390b"] ;
448 -> 449 ;
450 [label="mse = 0.0\nsamples = 2\nvalue = 26.73", fillcolor="#e581390a"] ;
448 -> 450 ;
451 [label="day <= 0.583\nmse = 0.012\nsamples = 4\nvalue = 27.0", fillcolor="#e581390b"] ;
447 -> 451 ;
452 [label="day_of_week_Sat <= 0.5\nmse = 0.01\nsamples = 3\nvalue = 27.068", fillcolor="#e581390b"] ;
451 -> 452 ;
453 [label="biz_day_1 <= 0.5\nmse = 0.002\nsamples = 2\nvalue = 27.12", fillcolor="#e581390b"] ;
452 -> 453 ;
454 [label="mse = 0.0\nsamples = 1\nvalue = 27.09", fillcolor="#e581390b"] ;
453 -> 454 ;
455 [label="mse = 0.0\nsamples = 1\nvalue = 27.18", fillcolor="#e581390c"] ;
453 -> 455 ;
456 [label="mse = 0.0\nsamples = 1\nvalue = 26.91", fillcolor="#e581390b"] ;
452 -> 456 ;
457 [label="mse = 0.0\nsamples = 1\nvalue = 26.91", fillcolor="#e581390b"] ;
451 -> 457 ;
458 [label="rh <= 0.37\nmse = 0.014\nsamples = 3\nvalue = 27.158", fillcolor="#e581390c"] ;
444 -> 458 ;
459 [label="mse = 0.0\nsamples = 1\nvalue = 27.36", fillcolor="#e581390c"] ;
458 -> 459 ;
460 [label="mse = 0.0\nsamples = 2\nvalue = 27.09", fillcolor="#e581390b"] ;
458 -> 460 ;
461 [label="rh <= 0.349\nmse = 0.077\nsamples = 3\nvalue = 27.45", fillcolor="#e581390d"] ;
443 -> 461 ;
462 [label="temp <= 0.423\nmse = 0.008\nsamples = 2\nvalue = 27.18", fillcolor="#e581390c"] ;
461 -> 462 ;
463 [label="mse = 0.0\nsamples = 1\nvalue = 27.09", fillcolor="#e581390b"] ;
462 -> 463 ;
464 [label="mse = 0.0\nsamples = 1\nvalue = 27.27", fillcolor="#e581390c"] ;
462 -> 464 ;
465 [label="mse = 0.0\nsamples = 1\nvalue = 27.72", fillcolor="#e581390e"] ;
461 -> 465 ;
466 [label="rh <= 0.492\nmse = 0.313\nsamples = 8\nvalue = 25.983", fillcolor="#e5813907"] ;
398 -> 466 ;
467 [label="ws <= 0.085\nmse = 0.102\nsamples = 4\nvalue = 25.488", fillcolor="#e5813905"] ;
466 -> 467 ;
468 [label="rh <= 0.465\nmse = 0.002\nsamples = 2\nvalue = 25.23", fillcolor="#e5813904"] ;
467 -> 468 ;
469 [label="mse = 0.0\nsamples = 1\nvalue = 25.2", fillcolor="#e5813904"] ;
468 -> 469 ;
470 [label="mse = 0.0\nsamples = 1\nvalue = 25.29", fillcolor="#e5813904"] ;
468 -> 470 ;
471 [label="num_time <= 0.042\nmse = 0.002\nsamples = 2\nvalue = 25.875", fillcolor="#e5813907"] ;
467 -> 471 ;
472 [label="mse = 0.0\nsamples = 1\nvalue = 25.92", fillcolor="#e5813907"] ;
471 -> 472 ;
473 [label="mse = 0.0\nsamples = 1\nvalue = 25.83", fillcolor="#e5813906"] ;
471 -> 473 ;
474 [label="day_of_week_Fri <= 0.5\nmse = 0.034\nsamples = 4\nvalue = 26.478", fillcolor="#e5813909"] ;
466 -> 474 ;
475 [label="num_time <= 0.037\nmse = 0.016\nsamples = 3\nvalue = 26.55", fillcolor="#e5813909"] ;
474 -> 475 ;
476 [label="mse = 0.0\nsamples = 1\nvalue = 26.37", fillcolor="#e5813909"] ;
475 -> 476 ;
477 [label="pwat <= 0.7\nmse = 0.007\nsamples = 2\nvalue = 26.61", fillcolor="#e5813909"] ;
475 -> 477 ;
478 [label="mse = 0.0\nsamples = 1\nvalue = 26.55", fillcolor="#e5813909"] ;
477 -> 478 ;
479 [label="mse = 0.0\nsamples = 1\nvalue = 26.73", fillcolor="#e581390a"] ;
477 -> 479 ;
480 [label="mse = 0.0\nsamples = 1\nvalue = 26.19", fillcolor="#e5813908"] ;
474 -> 480 ;
481 [label="rh <= 0.185\nmse = 0.875\nsamples = 14\nvalue = 26.057", fillcolor="#e5813907"] ;
343 -> 481 ;
482 [label="pwat <= 0.442\nmse = 0.292\nsamples = 2\nvalue = 28.08", fillcolor="#e581390f"] ;
481 -> 482 ;
483 [label="mse = 0.0\nsamples = 1\nvalue = 28.62", fillcolor="#e5813911"] ;
482 -> 483 ;
484 [label="mse = 0.0\nsamples = 1\nvalue = 27.54", fillcolor="#e581390d"] ;
482 -> 484 ;
485 [label="temp <= 0.41\nmse = 0.406\nsamples = 12\nvalue = 25.819", fillcolor="#e5813906"] ;
481 -> 485 ;
486 [label="rh <= 0.396\nmse = 0.374\nsamples = 10\nvalue = 25.92", fillcolor="#e5813907"] ;
485 -> 486 ;
487 [label="pwat <= 0.47\nmse = 0.339\nsamples = 9\nvalue = 26.031", fillcolor="#e5813907"] ;
486 -> 487 ;
488 [label="num_time <= 0.016\nmse = 0.139\nsamples = 4\nvalue = 25.701", fillcolor="#e5813906"] ;
487 -> 488 ;
489 [label="mse = 0.0\nsamples = 1\nvalue = 26.46", fillcolor="#e5813909"] ;
488 -> 489 ;
490 [label="rh <= 0.242\nmse = 0.05\nsamples = 3\nvalue = 25.575", fillcolor="#e5813906"] ;
488 -> 490 ;
491 [label="mse = 0.0\nsamples = 1\nvalue = 25.11", fillcolor="#e5813904"] ;
490 -> 491 ;
492 [label="ws <= 0.09\nmse = 0.008\nsamples = 2\nvalue = 25.668", fillcolor="#e5813906"] ;
490 -> 492 ;
493 [label="mse = 0.0\nsamples = 1\nvalue = 25.74", fillcolor="#e5813906"] ;
492 -> 493 ;
494 [label="mse = -0.0\nsamples = 1\nvalue = 25.56", fillcolor="#e5813905"] ;
492 -> 494 ;
495 [label="pwat <= 0.505\nmse = 0.299\nsamples = 5\nvalue = 26.415", fillcolor="#e5813909"] ;
487 -> 495 ;
496 [label="mse = 0.0\nsamples = 1\nvalue = 27.54", fillcolor="#e581390d"] ;
495 -> 496 ;
497 [label="num_time <= 0.042\nmse = 0.055\nsamples = 4\nvalue = 26.19", fillcolor="#e5813908"] ;
495 -> 497 ;
498 [label="ws <= 0.08\nmse = 0.006\nsamples = 3\nvalue = 26.303", fillcolor="#e5813908"] ;
497 -> 498 ;
499 [label="mse = 0.0\nsamples = 1\nvalue = 26.37", fillcolor="#e5813909"] ;
498 -> 499 ;
500 [label="day <= 0.85\nmse = 0.002\nsamples = 2\nvalue = 26.235", fillcolor="#e5813908"] ;
498 -> 500 ;
501 [label="mse = 0.0\nsamples = 1\nvalue = 26.28", fillcolor="#e5813908"] ;
500 -> 501 ;
502 [label="mse = 0.0\nsamples = 1\nvalue = 26.19", fillcolor="#e5813908"] ;
500 -> 502 ;
503 [label="mse = -0.0\nsamples = 1\nvalue = 25.74", fillcolor="#e5813906"] ;
497 -> 503 ;
504 [label="mse = 0.0\nsamples = 1\nvalue = 25.2", fillcolor="#e5813904"] ;
486 -> 504 ;
505 [label="pwat <= 0.453\nmse = 0.002\nsamples = 2\nvalue = 25.065", fillcolor="#e5813904"] ;
485 -> 505 ;
506 [label="mse = 0.0\nsamples = 1\nvalue = 25.02", fillcolor="#e5813903"] ;
505 -> 506 ;
507 [label="mse = 0.0\nsamples = 1\nvalue = 25.11", fillcolor="#e5813904"] ;
505 -> 507 ;
508 [label="rh <= 0.427\nmse = 2.306\nsamples = 5\nvalue = 28.983", fillcolor="#e5813912"] ;
342 -> 508 ;
509 [label="pwat <= 0.472\nmse = 0.433\nsamples = 4\nvalue = 28.282", fillcolor="#e5813910"] ;
508 -> 509 ;
510 [label="temp <= 0.382\nmse = 0.163\nsamples = 3\nvalue = 28.728", fillcolor="#e5813911"] ;
509 -> 510 ;
511 [label="mse = 0.0\nsamples = 1\nvalue = 29.16", fillcolor="#e5813913"] ;
510 -> 511 ;
512 [label="temp <= 0.413\nmse = 0.065\nsamples = 2\nvalue = 28.44", fillcolor="#e5813910"] ;
510 -> 512 ;
513 [label="mse = 0.0\nsamples = 1\nvalue = 28.08", fillcolor="#e581390f"] ;
512 -> 513 ;
514 [label="mse = 0.0\nsamples = 1\nvalue = 28.62", fillcolor="#e5813911"] ;
512 -> 514 ;
515 [label="mse = -0.0\nsamples = 1\nvalue = 27.54", fillcolor="#e581390d"] ;
509 -> 515 ;
516 [label="mse = -0.0\nsamples = 1\nvalue = 31.783", fillcolor="#e581391d"] ;
508 -> 516 ;
517 [label="ws <= 0.122\nmse = 3.633\nsamples = 3\nvalue = 36.864", fillcolor="#e5813930"] ;
335 -> 517 ;
518 [label="mse = 0.0\nsamples = 1\nvalue = 33.879", fillcolor="#e5813925"] ;
517 -> 518 ;
519 [label="rh <= 0.354\nmse = 0.883\nsamples = 2\nvalue = 37.86", fillcolor="#e5813934"] ;
517 -> 519 ;
520 [label="mse = 0.0\nsamples = 1\nvalue = 38.524", fillcolor="#e5813937"] ;
519 -> 520 ;
521 [label="mse = 0.0\nsamples = 1\nvalue = 36.53", fillcolor="#e581392f"] ;
519 -> 521 ;
522 [label="num_time <= 0.016\nmse = 1.834\nsamples = 249\nvalue = 26.997", fillcolor="#e581390b"] ;
334 -> 522 ;
523 [label="season_day <= 0.711\nmse = 2.378\nsamples = 44\nvalue = 27.591", fillcolor="#e581390d"] ;
522 -> 523 ;
524 [label="day <= 0.917\nmse = 2.408\nsamples = 24\nvalue = 28.161", fillcolor="#e581390f"] ;
523 -> 524 ;
525 [label="temp <= 0.341\nmse = 0.961\nsamples = 23\nvalue = 27.967", fillcolor="#e581390f"] ;
524 -> 525 ;
526 [label="rh <= 0.327\nmse = 0.436\nsamples = 6\nvalue = 28.833", fillcolor="#e5813912"] ;
525 -> 526 ;
527 [label="pwat <= 0.325\nmse = 0.211\nsamples = 5\nvalue = 28.989", fillcolor="#e5813912"] ;
526 -> 527 ;
528 [label="mse = 0.0\nsamples = 1\nvalue = 30.33", fillcolor="#e5813918"] ;
527 -> 528 ;
529 [label="day <= 0.4\nmse = 0.013\nsamples = 4\nvalue = 28.84", fillcolor="#e5813912"] ;
527 -> 529 ;
530 [label="day_of_week_Sat <= 0.5\nmse = 0.002\nsamples = 2\nvalue = 28.746", fillcolor="#e5813912"] ;
529 -> 530 ;
531 [label="mse = 0.0\nsamples = 1\nvalue = 28.8", fillcolor="#e5813912"] ;
530 -> 531 ;
532 [label="mse = 0.0\nsamples = 1\nvalue = 28.71", fillcolor="#e5813911"] ;
530 -> 532 ;
533 [label="week_day_end_end <= 0.5\nmse = 0.002\nsamples = 2\nvalue = 28.958", fillcolor="#e5813912"] ;
529 -> 533 ;
534 [label="mse = 0.0\nsamples = 1\nvalue = 28.98", fillcolor="#e5813912"] ;
533 -> 534 ;
535 [label="mse = -0.0\nsamples = 1\nvalue = 28.89", fillcolor="#e5813912"] ;
533 -> 535 ;
536 [label="mse = 0.0\nsamples = 1\nvalue = 27.27", fillcolor="#e581390c"] ;
526 -> 536 ;
537 [label="pwat <= 0.691\nmse = 0.756\nsamples = 17\nvalue = 27.627", fillcolor="#e581390d"] ;
525 -> 537 ;
538 [label="day_of_week_Tue <= 0.5\nmse = 0.577\nsamples = 12\nvalue = 27.844", fillcolor="#e581390e"] ;
537 -> 538 ;
539 [label="temp <= 0.437\nmse = 0.435\nsamples = 7\nvalue = 27.471", fillcolor="#e581390d"] ;
538 -> 539 ;
540 [label="temp <= 0.423\nmse = 0.259\nsamples = 4\nvalue = 27.056", fillcolor="#e581390b"] ;
539 -> 540 ;
541 [label="pwat <= 0.427\nmse = 0.012\nsamples = 3\nvalue = 27.345", fillcolor="#e581390c"] ;
540 -> 541 ;
542 [label="day_of_week_Thu <= 0.5\nmse = 0.002\nsamples = 2\nvalue = 27.24", fillcolor="#e581390c"] ;
541 -> 542 ;
543 [label="mse = 0.0\nsamples = 1\nvalue = 27.27", fillcolor="#e581390c"] ;
542 -> 543 ;
544 [label="mse = 0.0\nsamples = 1\nvalue = 27.18", fillcolor="#e581390c"] ;
542 -> 544 ;
545 [label="mse = -0.0\nsamples = 1\nvalue = 27.45", fillcolor="#e581390d"] ;
541 -> 545 ;
546 [label="mse = 0.0\nsamples = 1\nvalue = 26.19", fillcolor="#e5813908"] ;
540 -> 546 ;
547 [label="rh <= 0.184\nmse = 0.002\nsamples = 3\nvalue = 28.134", fillcolor="#e581390f"] ;
539 -> 547 ;
548 [label="mse = 0.0\nsamples = 1\nvalue = 28.17", fillcolor="#e581390f"] ;
547 -> 548 ;
549 [label="mse = -0.0\nsamples = 2\nvalue = 28.08", fillcolor="#e581390f"] ;
547 -> 549 ;
550 [label="ws <= 0.293\nmse = 0.214\nsamples = 5\nvalue = 28.451", fillcolor="#e5813910"] ;
538 -> 550 ;
551 [label="day <= 0.55\nmse = 0.05\nsamples = 4\nvalue = 28.607", fillcolor="#e5813911"] ;
550 -> 551 ;
552 [label="day <= 0.267\nmse = 0.029\nsamples = 2\nvalue = 28.83", fillcolor="#e5813912"] ;
551 -> 552 ;
553 [label="mse = 0.0\nsamples = 1\nvalue = 28.71", fillcolor="#e5813911"] ;
552 -> 553 ;
554 [label="mse = -0.0\nsamples = 1\nvalue = 29.07", fillcolor="#e5813913"] ;
552 -> 554 ;
555 [label="mse = 0.0\nsamples = 2\nvalue = 28.44", fillcolor="#e5813910"] ;
551 -> 555 ;
556 [label="mse = -0.0\nsamples = 1\nvalue = 27.36", fillcolor="#e581390c"] ;
550 -> 556 ;
557 [label="ws <= 0.154\nmse = 0.726\nsamples = 5\nvalue = 26.974", fillcolor="#e581390b"] ;
537 -> 557 ;
558 [label="mse = 0.0\nsamples = 1\nvalue = 25.2", fillcolor="#e5813904"] ;
557 -> 558 ;
559 [label="temp <= 0.36\nmse = 0.235\nsamples = 4\nvalue = 27.27", fillcolor="#e581390c"] ;
557 -> 559 ;
560 [label="day <= 0.05\nmse = 0.008\nsamples = 2\nvalue = 27.9", fillcolor="#e581390e"] ;
559 -> 560 ;
561 [label="mse = 0.0\nsamples = 1\nvalue = 27.99", fillcolor="#e581390f"] ;
560 -> 561 ;
562 [label="mse = -0.0\nsamples = 1\nvalue = 27.81", fillcolor="#e581390e"] ;
560 -> 562 ;
563 [label="day_of_week_Sat <= 0.5\nmse = 0.051\nsamples = 2\nvalue = 26.955", fillcolor="#e581390b"] ;
559 -> 563 ;
564 [label="mse = 0.0\nsamples = 1\nvalue = 26.73", fillcolor="#e581390a"] ;
563 -> 564 ;
565 [label="mse = 0.0\nsamples = 1\nvalue = 27.18", fillcolor="#e581390c"] ;
563 -> 565 ;
566 [label="mse = 0.0\nsamples = 1\nvalue = 35.735", fillcolor="#e581392c"] ;
524 -> 566 ;
567 [label="temp <= 0.305\nmse = 1.427\nsamples = 20\nvalue = 26.879", fillcolor="#e581390a"] ;
523 -> 567 ;
568 [label="ws <= 0.245\nmse = 0.031\nsamples = 3\nvalue = 25.455", fillcolor="#e5813905"] ;
567 -> 568 ;
569 [label="week_day_end_day <= 0.5\nmse = 0.007\nsamples = 2\nvalue = 25.62", fillcolor="#e5813906"] ;
568 -> 569 ;
570 [label="mse = 0.0\nsamples = 1\nvalue = 25.56", fillcolor="#e5813905"] ;
569 -> 570 ;
571 [label="mse = -0.0\nsamples = 1\nvalue = 25.74", fillcolor="#e5813906"] ;
569 -> 571 ;
572 [label="mse = -0.0\nsamples = 1\nvalue = 25.29", fillcolor="#e5813904"] ;
568 -> 572 ;
573 [label="day_of_week_Sat <= 0.5\nmse = 1.173\nsamples = 17\nvalue = 27.208", fillcolor="#e581390c"] ;
567 -> 573 ;
574 [label="pwat <= 0.475\nmse = 0.678\nsamples = 14\nvalue = 26.963", fillcolor="#e581390b"] ;
573 -> 574 ;
575 [label="day_of_week_Tue <= 0.5\nmse = 0.376\nsamples = 7\nvalue = 26.435", fillcolor="#e5813909"] ;
574 -> 575 ;
576 [label="day_of_week_Thu <= 0.5\nmse = 0.121\nsamples = 5\nvalue = 26.19", fillcolor="#e5813908"] ;
575 -> 576 ;
577 [label="day_of_week_Mon <= 0.5\nmse = 0.022\nsamples = 4\nvalue = 26.078", fillcolor="#e5813907"] ;
576 -> 577 ;
578 [label="temp <= 0.442\nmse = 0.002\nsamples = 2\nvalue = 25.974", fillcolor="#e5813907"] ;
577 -> 578 ;
579 [label="mse = 0.0\nsamples = 1\nvalue = 26.01", fillcolor="#e5813907"] ;
578 -> 579 ;
580 [label="mse = 0.0\nsamples = 1\nvalue = 25.92", fillcolor="#e5813907"] ;
578 -> 580 ;
581 [label="season_day <= 0.861\nmse = 0.007\nsamples = 2\nvalue = 26.25", fillcolor="#e5813908"] ;
577 -> 581 ;
582 [label="mse = 0.0\nsamples = 1\nvalue = 26.19", fillcolor="#e5813908"] ;
581 -> 582 ;
583 [label="mse = 0.0\nsamples = 1\nvalue = 26.37", fillcolor="#e5813909"] ;
581 -> 583 ;
584 [label="mse = -0.0\nsamples = 1\nvalue = 27.09", fillcolor="#e581390b"] ;
576 -> 584 ;
585 [label="pwat <= 0.362\nmse = 0.032\nsamples = 2\nvalue = 27.54", fillcolor="#e581390d"] ;
575 -> 585 ;
586 [label="mse = 0.0\nsamples = 1\nvalue = 27.72", fillcolor="#e581390e"] ;
585 -> 586 ;
587 [label="mse = 0.0\nsamples = 1\nvalue = 27.36", fillcolor="#e581390c"] ;
585 -> 587 ;
588 [label="day <= 0.45\nmse = 0.423\nsamples = 7\nvalue = 27.491", fillcolor="#e581390d"] ;
574 -> 588 ;
589 [label="mse = 0.0\nsamples = 1\nvalue = 26.46", fillcolor="#e5813909"] ;
588 -> 589 ;
590 [label="week_day_end_day <= 0.5\nmse = 0.229\nsamples = 6\nvalue = 27.72", fillcolor="#e581390e"] ;
588 -> 590 ;
591 [label="mse = 0.0\nsamples = 1\nvalue = 26.73", fillcolor="#e581390a"] ;
590 -> 591 ;
592 [label="rh <= 0.349\nmse = 0.119\nsamples = 5\nvalue = 27.844", fillcolor="#e581390e"] ;
590 -> 592 ;
593 [label="mse = 0.0\nsamples = 1\nvalue = 27.09", fillcolor="#e581390b"] ;
592 -> 593 ;
594 [label="day <= 0.683\nmse = 0.044\nsamples = 4\nvalue = 27.951", fillcolor="#e581390f"] ;
592 -> 594 ;
595 [label="mse = 0.0\nsamples = 1\nvalue = 28.26", fillcolor="#e5813910"] ;
594 -> 595 ;
596 [label="pwat <= 0.736\nmse = 0.008\nsamples = 3\nvalue = 27.828", fillcolor="#e581390e"] ;
594 -> 596 ;
597 [label="mse = 0.0\nsamples = 2\nvalue = 27.9", fillcolor="#e581390e"] ;
596 -> 597 ;
598 [label="mse = -0.0\nsamples = 1\nvalue = 27.72", fillcolor="#e581390e"] ;
596 -> 598 ;
599 [label="temp <= 0.437\nmse = 1.759\nsamples = 3\nvalue = 28.552", fillcolor="#e5813911"] ;
573 -> 599 ;
600 [label="mse = 0.0\nsamples = 1\nvalue = 29.79", fillcolor="#e5813915"] ;
599 -> 600 ;
601 [label="ws <= 0.239\nmse = 0.456\nsamples = 2\nvalue = 27.315", fillcolor="#e581390c"] ;
599 -> 601 ;
602 [label="mse = 0.0\nsamples = 1\nvalue = 27.99", fillcolor="#e581390f"] ;
601 -> 602 ;
603 [label="mse = 0.0\nsamples = 1\nvalue = 26.64", fillcolor="#e581390a"] ;
601 -> 603 ;
604 [label="day_of_week_Fri <= 0.5\nmse = 1.615\nsamples = 205\nvalue = 26.864", fillcolor="#e581390a"] ;
522 -> 604 ;
605 [label="season_day <= 0.883\nmse = 1.629\nsamples = 183\nvalue = 26.773", fillcolor="#e581390a"] ;
604 -> 605 ;
606 [label="pwat <= 0.629\nmse = 1.55\nsamples = 148\nvalue = 26.88", fillcolor="#e581390a"] ;
605 -> 606 ;
607 [label="pwat <= 0.618\nmse = 1.54\nsamples = 108\nvalue = 27.1", fillcolor="#e581390b"] ;
606 -> 607 ;
608 [label="day <= 0.05\nmse = 1.248\nsamples = 107\nvalue = 27.059", fillcolor="#e581390b"] ;
607 -> 608 ;
609 [label="season_day <= 0.511\nmse = 3.457\nsamples = 4\nvalue = 29.616", fillcolor="#e5813915"] ;
608 -> 609 ;
610 [label="pwat <= 0.59\nmse = 0.01\nsamples = 3\nvalue = 28.688", fillcolor="#e5813911"] ;
609 -> 610 ;
611 [label="rh <= 0.407\nmse = 0.002\nsamples = 2\nvalue = 28.74", fillcolor="#e5813911"] ;
610 -> 611 ;
612 [label="mse = 0.0\nsamples = 1\nvalue = 28.8", fillcolor="#e5813912"] ;
611 -> 612 ;
613 [label="mse = 0.0\nsamples = 1\nvalue = 28.71", fillcolor="#e5813911"] ;
611 -> 613 ;
614 [label="mse = 0.0\nsamples = 1\nvalue = 28.53", fillcolor="#e5813911"] ;
610 -> 614 ;
615 [label="mse = -0.0\nsamples = 1\nvalue = 33.33", fillcolor="#e5813923"] ;
609 -> 615 ;
616 [label="rh <= 0.28\nmse = 0.985\nsamples = 103\nvalue = 26.984", fillcolor="#e581390b"] ;
608 -> 616 ;
617 [label="season_day <= 0.111\nmse = 0.906\nsamples = 47\nvalue = 26.6", fillcolor="#e5813909"] ;
616 -> 617 ;
618 [label="mse = 0.0\nsamples = 1\nvalue = 30.15", fillcolor="#e5813917"] ;
617 -> 618 ;
619 [label="day_of_week_Tue <= 0.5\nmse = 0.741\nsamples = 46\nvalue = 26.551", fillcolor="#e5813909"] ;
617 -> 619 ;
620 [label="pwat <= 0.315\nmse = 0.483\nsamples = 39\nvalue = 26.398", fillcolor="#e5813909"] ;
619 -> 620 ;
621 [label="rh <= 0.227\nmse = 0.133\nsamples = 6\nvalue = 27.259", fillcolor="#e581390c"] ;
620 -> 621 ;
622 [label="rh <= 0.145\nmse = 0.075\nsamples = 4\nvalue = 27.39", fillcolor="#e581390c"] ;
621 -> 622 ;
623 [label="mse = 0.0\nsamples = 1\nvalue = 26.82", fillcolor="#e581390a"] ;
622 -> 623 ;
624 [label="month <= 0.25\nmse = 0.012\nsamples = 3\nvalue = 27.504", fillcolor="#e581390d"] ;
622 -> 624 ;
625 [label="mse = 0.0\nsamples = 1\nvalue = 27.63", fillcolor="#e581390d"] ;
624 -> 625 ;
626 [label="ws <= 0.191\nmse = 0.002\nsamples = 2\nvalue = 27.42", fillcolor="#e581390c"] ;
624 -> 626 ;
627 [label="mse = 0.0\nsamples = 1\nvalue = 27.45", fillcolor="#e581390d"] ;
626 -> 627 ;
628 [label="mse = 0.0\nsamples = 1\nvalue = 27.36", fillcolor="#e581390c"] ;
626 -> 628 ;
629 [label="temp <= 0.328\nmse = 0.099\nsamples = 2\nvalue = 26.865", fillcolor="#e581390a"] ;
621 -> 629 ;
630 [label="mse = 0.0\nsamples = 1\nvalue = 26.55", fillcolor="#e5813909"] ;
629 -> 630 ;
631 [label="mse = -0.0\nsamples = 1\nvalue = 27.18", fillcolor="#e581390c"] ;
629 -> 631 ;
632 [label="ws <= 0.372\nmse = 0.409\nsamples = 33\nvalue = 26.271", fillcolor="#e5813908"] ;
620 -> 632 ;
633 [label="day_of_week_Sat <= 0.5\nmse = 0.332\nsamples = 32\nvalue = 26.196", fillcolor="#e5813908"] ;
632 -> 633 ;
634 [label="ws <= 0.229\nmse = 0.258\nsamples = 29\nvalue = 26.097", fillcolor="#e5813907"] ;
633 -> 634 ;
635 [label="pwat <= 0.388\nmse = 0.126\nsamples = 14\nvalue = 26.408", fillcolor="#e5813909"] ;
634 -> 635 ;
636 [label="month <= 0.25\nmse = 0.048\nsamples = 9\nvalue = 26.182", fillcolor="#e5813908"] ;
635 -> 636 ;
637 [label="mse = 0.0\nsamples = 1\nvalue = 25.65", fillcolor="#e5813906"] ;
636 -> 637 ;
638 [label="rh <= 0.113\nmse = 0.024\nsamples = 8\nvalue = 26.231", fillcolor="#e5813908"] ;
636 -> 638 ;
639 [label="mse = 0.0\nsamples = 1\nvalue = 26.01", fillcolor="#e5813907"] ;
638 -> 639 ;
640 [label="season_day <= 0.544\nmse = 0.016\nsamples = 7\nvalue = 26.28", fillcolor="#e5813908"] ;
638 -> 640 ;
641 [label="temp <= 0.401\nmse = 0.007\nsamples = 5\nvalue = 26.229", fillcolor="#e5813908"] ;
640 -> 641 ;
642 [label="rh <= 0.217\nmse = 0.007\nsamples = 3\nvalue = 26.16", fillcolor="#e5813908"] ;
641 -> 642 ;
643 [label="mse = 0.0\nsamples = 1\nvalue = 26.28", fillcolor="#e5813908"] ;
642 -> 643 ;
644 [label="mse = -0.0\nsamples = 2\nvalue = 26.1", fillcolor="#e5813908"] ;
642 -> 644 ;
645 [label="mse = 0.0\nsamples = 2\nvalue = 26.28", fillcolor="#e5813908"] ;
641 -> 645 ;
646 [label="num_time <= 0.047\nmse = 0.008\nsamples = 2\nvalue = 26.46", fillcolor="#e5813909"] ;
640 -> 646 ;
647 [label="mse = 0.0\nsamples = 1\nvalue = 26.55", fillcolor="#e5813909"] ;
646 -> 647 ;
648 [label="mse = 0.0\nsamples = 1\nvalue = 26.37", fillcolor="#e5813909"] ;
646 -> 648 ;
649 [label="pwat <= 0.55\nmse = 0.022\nsamples = 5\nvalue = 26.794", fillcolor="#e581390a"] ;
635 -> 649 ;
650 [label="ws <= 0.207\nmse = 0.009\nsamples = 4\nvalue = 26.745", fillcolor="#e581390a"] ;
649 -> 650 ;
651 [label="pwat <= 0.507\nmse = 0.002\nsamples = 3\nvalue = 26.784", fillcolor="#e581390a"] ;
650 -> 651 ;
652 [label="mse = 0.0\nsamples = 1\nvalue = 26.73", fillcolor="#e581390a"] ;
651 -> 652 ;
653 [label="mse = 0.0\nsamples = 2\nvalue = 26.82", fillcolor="#e581390a"] ;
651 -> 653 ;
654 [label="mse = -0.0\nsamples = 1\nvalue = 26.55", fillcolor="#e5813909"] ;
650 -> 654 ;
655 [label="mse = 0.0\nsamples = 1\nvalue = 27.09", fillcolor="#e581390b"] ;
649 -> 655 ;
656 [label="rh <= 0.182\nmse = 0.235\nsamples = 15\nvalue = 25.878", fillcolor="#e5813907"] ;
634 -> 656 ;
657 [label="mse = 0.0\nsamples = 1\nvalue = 27.81", fillcolor="#e581390e"] ;
656 -> 657 ;
658 [label="num_time <= 0.047\nmse = 0.095\nsamples = 14\nvalue = 25.804", fillcolor="#e5813906"] ;
656 -> 658 ;
659 [label="day <= 0.7\nmse = 0.069\nsamples = 12\nvalue = 25.885", fillcolor="#e5813907"] ;
658 -> 659 ;
660 [label="num_time <= 0.037\nmse = 0.022\nsamples = 7\nvalue = 26.023", fillcolor="#e5813907"] ;
659 -> 660 ;
661 [label="temp <= 0.422\nmse = 0.024\nsamples = 4\nvalue = 26.1", fillcolor="#e5813908"] ;
660 -> 661 ;
662 [label="day_of_week_Sun <= 0.5\nmse = 0.007\nsamples = 3\nvalue = 26.049", fillcolor="#e5813907"] ;
661 -> 662 ;
663 [label="mse = -0.0\nsamples = 2\nvalue = 26.1", fillcolor="#e5813908"] ;
662 -> 663 ;
664 [label="mse = 0.0\nsamples = 1\nvalue = 25.92", fillcolor="#e5813907"] ;
662 -> 664 ;
665 [label="mse = -0.0\nsamples = 1\nvalue = 26.46", fillcolor="#e5813909"] ;
661 -> 665 ;
666 [label="mse = -0.0\nsamples = 3\nvalue = 25.92", fillcolor="#e5813907"] ;
660 -> 666 ;
667 [label="ws <= 0.303\nmse = 0.059\nsamples = 5\nvalue = 25.644", fillcolor="#e5813906"] ;
659 -> 667 ;
668 [label="num_time <= 0.037\nmse = 0.002\nsamples = 3\nvalue = 25.402", fillcolor="#e5813905"] ;
667 -> 668 ;
669 [label="mse = 0.0\nsamples = 2\nvalue = 25.38", fillcolor="#e5813905"] ;
668 -> 669 ;
670 [label="mse = 0.0\nsamples = 1\nvalue = 25.47", fillcolor="#e5813905"] ;
668 -> 670 ;
671 [label="num_time <= 0.026\nmse = 0.0\nsamples = 2\nvalue = 25.886", fillcolor="#e5813907"] ;
667 -> 671 ;
672 [label="mse = 0.0\nsamples = 1\nvalue = 25.92", fillcolor="#e5813907"] ;
671 -> 672 ;
673 [label="mse = 0.0\nsamples = 1\nvalue = 25.875", fillcolor="#e5813907"] ;
671 -> 673 ;
674 [label="temp <= 0.406\nmse = 0.002\nsamples = 2\nvalue = 25.358", fillcolor="#e5813905"] ;
658 -> 674 ;
675 [label="mse = 0.0\nsamples = 1\nvalue = 25.29", fillcolor="#e5813904"] ;
674 -> 675 ;
676 [label="mse = -0.0\nsamples = 1\nvalue = 25.38", fillcolor="#e5813905"] ;
674 -> 676 ;
677 [label="num_time <= 0.047\nmse = 0.098\nsamples = 3\nvalue = 27.108", fillcolor="#e581390b"] ;
633 -> 677 ;
678 [label="temp <= 0.367\nmse = 0.038\nsamples = 2\nvalue = 26.978", fillcolor="#e581390b"] ;
677 -> 678 ;
679 [label="mse = 0.0\nsamples = 1\nvalue = 26.64", fillcolor="#e581390a"] ;
678 -> 679 ;
680 [label="mse = 0.0\nsamples = 1\nvalue = 27.09", fillcolor="#e581390b"] ;
678 -> 680 ;
681 [label="mse = 0.0\nsamples = 1\nvalue = 27.63", fillcolor="#e581390d"] ;
677 -> 681 ;
682 [label="mse = -0.0\nsamples = 1\nvalue = 27.54", fillcolor="#e581390d"] ;
632 -> 682 ;
683 [label="day <= 0.283\nmse = 1.308\nsamples = 7\nvalue = 27.495", fillcolor="#e581390d"] ;
619 -> 683 ;
684 [label="mse = 0.0\nsamples = 1\nvalue = 25.38", fillcolor="#e5813905"] ;
683 -> 684 ;
685 [label="rh <= 0.187\nmse = 0.237\nsamples = 6\nvalue = 28.024", fillcolor="#e581390f"] ;
683 -> 685 ;
686 [label="temp <= 0.404\nmse = 0.099\nsamples = 2\nvalue = 28.755", fillcolor="#e5813912"] ;
685 -> 686 ;
687 [label="mse = 0.0\nsamples = 1\nvalue = 28.44", fillcolor="#e5813910"] ;
686 -> 687 ;
688 [label="mse = -0.0\nsamples = 1\nvalue = 29.07", fillcolor="#e5813913"] ;
686 -> 688 ;
689 [label="season_day <= 0.35\nmse = 0.045\nsamples = 4\nvalue = 27.78", fillcolor="#e581390e"] ;
685 -> 689 ;
690 [label="mse = 0.0\nsamples = 1\nvalue = 27.36", fillcolor="#e581390c"] ;
689 -> 690 ;
691 [label="day <= 0.667\nmse = 0.012\nsamples = 3\nvalue = 27.864", fillcolor="#e581390e"] ;
689 -> 691 ;
692 [label="mse = 0.0\nsamples = 1\nvalue = 28.08", fillcolor="#e581390f"] ;
691 -> 692 ;
693 [label="mse = 0.0\nsamples = 2\nvalue = 27.81", fillcolor="#e581390e"] ;
691 -> 693 ;
694 [label="day <= 0.133\nmse = 0.851\nsamples = 56\nvalue = 27.272", fillcolor="#e581390c"] ;
616 -> 694 ;
695 [label="pwat <= 0.361\nmse = 0.183\nsamples = 3\nvalue = 25.632", fillcolor="#e5813906"] ;
694 -> 695 ;
696 [label="week_day_end_end <= 0.5\nmse = 0.018\nsamples = 2\nvalue = 26.145", fillcolor="#e5813908"] ;
695 -> 696 ;
697 [label="mse = 0.0\nsamples = 1\nvalue = 26.28", fillcolor="#e5813908"] ;
696 -> 697 ;
698 [label="mse = -0.0\nsamples = 1\nvalue = 26.01", fillcolor="#e5813907"] ;
696 -> 698 ;
699 [label="mse = -0.0\nsamples = 1\nvalue = 25.29", fillcolor="#e5813904"] ;
695 -> 699 ;
700 [label="pwat <= 0.489\nmse = 0.733\nsamples = 53\nvalue = 27.361", fillcolor="#e581390c"] ;
694 -> 700 ;
701 [label="ws <= 0.356\nmse = 0.372\nsamples = 28\nvalue = 27.699", fillcolor="#e581390e"] ;
700 -> 701 ;
702 [label="ws <= 0.197\nmse = 0.287\nsamples = 26\nvalue = 27.644", fillcolor="#e581390d"] ;
701 -> 702 ;
703 [label="season_day <= 0.739\nmse = 0.32\nsamples = 12\nvalue = 27.952", fillcolor="#e581390f"] ;
702 -> 703 ;
704 [label="ws <= 0.181\nmse = 0.323\nsamples = 7\nvalue = 28.24", fillcolor="#e5813910"] ;
703 -> 704 ;
705 [label="temp <= 0.34\nmse = 0.409\nsamples = 5\nvalue = 27.952", fillcolor="#e581390f"] ;
704 -> 705 ;
706 [label="day_of_week_Thu <= 0.5\nmse = 0.007\nsamples = 2\nvalue = 27.33", fillcolor="#e581390c"] ;
705 -> 706 ;
707 [label="mse = 0.0\nsamples = 1\nvalue = 27.45", fillcolor="#e581390d"] ;
706 -> 707 ;
708 [label="mse = 0.0\nsamples = 1\nvalue = 27.27", fillcolor="#e581390c"] ;
706 -> 708 ;
709 [label="day <= 0.817\nmse = 0.036\nsamples = 3\nvalue = 28.575", fillcolor="#e5813911"] ;
705 -> 709 ;
710 [label="mse = 0.0\nsamples = 2\nvalue = 28.71", fillcolor="#e5813911"] ;
709 -> 710 ;
711 [label="mse = 0.0\nsamples = 1\nvalue = 28.305", fillcolor="#e5813910"] ;
709 -> 711 ;
712 [label="temp <= 0.404\nmse = 0.002\nsamples = 2\nvalue = 28.584", fillcolor="#e5813911"] ;
704 -> 712 ;
713 [label="mse = 0.0\nsamples = 1\nvalue = 28.62", fillcolor="#e5813911"] ;
712 -> 713 ;
714 [label="mse = -0.0\nsamples = 1\nvalue = 28.53", fillcolor="#e5813911"] ;
712 -> 714 ;
715 [label="biz_day_0 <= 0.5\nmse = 0.092\nsamples = 5\nvalue = 27.6", fillcolor="#e581390d"] ;
703 -> 715 ;
716 [label="num_time <= 0.026\nmse = 0.051\nsamples = 3\nvalue = 27.405", fillcolor="#e581390c"] ;
715 -> 716 ;
717 [label="mse = 0.0\nsamples = 1\nvalue = 27.63", fillcolor="#e581390d"] ;
716 -> 717 ;
718 [label="mse = -0.0\nsamples = 2\nvalue = 27.18", fillcolor="#e581390c"] ;
716 -> 718 ;
719 [label="temp <= 0.474\nmse = 0.07\nsamples = 2\nvalue = 27.756", fillcolor="#e581390e"] ;
715 -> 719 ;
720 [label="mse = 0.0\nsamples = 1\nvalue = 28.08", fillcolor="#e581390f"] ;
719 -> 720 ;
721 [label="mse = -0.0\nsamples = 1\nvalue = 27.54", fillcolor="#e581390d"] ;
719 -> 721 ;
722 [label="pwat <= 0.384\nmse = 0.14\nsamples = 14\nvalue = 27.417", fillcolor="#e581390c"] ;
702 -> 722 ;
723 [label="mse = 0.0\nsamples = 1\nvalue = 26.64", fillcolor="#e581390a"] ;
722 -> 723 ;
724 [label="day_of_week_Mon <= 0.5\nmse = 0.099\nsamples = 13\nvalue = 27.479", fillcolor="#e581390d"] ;
722 -> 724 ;
725 [label="ws <= 0.266\nmse = 0.056\nsamples = 10\nvalue = 27.566", fillcolor="#e581390d"] ;
724 -> 725 ;
726 [label="temp <= 0.36\nmse = 0.061\nsamples = 7\nvalue = 27.672", fillcolor="#e581390d"] ;
725 -> 726 ;
727 [label="day <= 0.65\nmse = 0.026\nsamples = 4\nvalue = 27.506", fillcolor="#e581390d"] ;
726 -> 727 ;
728 [label="day_of_week_Wed <= 0.5\nmse = 0.01\nsamples = 3\nvalue = 27.652", fillcolor="#e581390d"] ;
727 -> 728 ;
729 [label="pwat <= 0.434\nmse = 0.002\nsamples = 2\nvalue = 27.6", fillcolor="#e581390d"] ;
728 -> 729 ;
730 [label="mse = 0.0\nsamples = 1\nvalue = 27.54", fillcolor="#e581390d"] ;
729 -> 730 ;
731 [label="mse = 0.0\nsamples = 1\nvalue = 27.63", fillcolor="#e581390d"] ;
729 -> 731 ;
732 [label="mse = -0.0\nsamples = 1\nvalue = 27.81", fillcolor="#e581390e"] ;
728 -> 732 ;
733 [label="mse = 0.0\nsamples = 1\nvalue = 27.36", fillcolor="#e581390c"] ;
727 -> 733 ;
734 [label="temp <= 0.381\nmse = 0.002\nsamples = 3\nvalue = 27.936", fillcolor="#e581390e"] ;
726 -> 734 ;
735 [label="mse = 0.0\nsamples = 1\nvalue = 27.99", fillcolor="#e581390f"] ;
734 -> 735 ;
736 [label="mse = 0.0\nsamples = 2\nvalue = 27.9", fillcolor="#e581390e"] ;
734 -> 736 ;
737 [label="rh <= 0.304\nmse = 0.002\nsamples = 3\nvalue = 27.394", fillcolor="#e581390c"] ;
725 -> 737 ;
738 [label="mse = -0.0\nsamples = 2\nvalue = 27.36", fillcolor="#e581390c"] ;
737 -> 738 ;
739 [label="mse = 0.0\nsamples = 1\nvalue = 27.45", fillcolor="#e581390d"] ;
737 -> 739 ;
740 [label="season_day <= 0.544\nmse = 0.074\nsamples = 3\nvalue = 27.022", fillcolor="#e581390b"] ;
724 -> 740 ;
741 [label="mse = 0.0\nsamples = 1\nvalue = 26.55", fillcolor="#e5813909"] ;
740 -> 741 ;
742 [label="mse = -0.0\nsamples = 2\nvalue = 27.18", fillcolor="#e581390c"] ;
740 -> 742 ;
743 [label="week_day_end_end <= 0.5\nmse = 0.656\nsamples = 2\nvalue = 28.98", fillcolor="#e5813912"] ;
701 -> 743 ;
744 [label="mse = 0.0\nsamples = 1\nvalue = 28.17", fillcolor="#e581390f"] ;
743 -> 744 ;
745 [label="mse = -0.0\nsamples = 1\nvalue = 29.79", fillcolor="#e5813915"] ;
743 -> 745 ;
746 [label="temp <= 0.413\nmse = 0.867\nsamples = 25\nvalue = 26.977", fillcolor="#e581390b"] ;
700 -> 746 ;
747 [label="rh <= 0.382\nmse = 0.66\nsamples = 16\nvalue = 27.324", fillcolor="#e581390c"] ;
746 -> 747 ;
748 [label="temp <= 0.399\nmse = 0.659\nsamples = 10\nvalue = 27.876", fillcolor="#e581390e"] ;
747 -> 748 ;
749 [label="rh <= 0.35\nmse = 0.461\nsamples = 7\nvalue = 28.132", fillcolor="#e581390f"] ;
748 -> 749 ;
750 [label="temp <= 0.389\nmse = 0.099\nsamples = 2\nvalue = 29.025", fillcolor="#e5813913"] ;
749 -> 750 ;
751 [label="mse = 0.0\nsamples = 1\nvalue = 29.34", fillcolor="#e5813914"] ;
750 -> 751 ;
752 [label="mse = 0.0\nsamples = 1\nvalue = 28.71", fillcolor="#e5813911"] ;
750 -> 752 ;
753 [label="day <= 0.917\nmse = 0.342\nsamples = 5\nvalue = 27.954", fillcolor="#e581390f"] ;
749 -> 753 ;
754 [label="day_of_week_Mon <= 0.5\nmse = 0.051\nsamples = 4\nvalue = 27.591", fillcolor="#e581390d"] ;
753 -> 754 ;
755 [label="pwat <= 0.503\nmse = 0.013\nsamples = 3\nvalue = 27.72", fillcolor="#e581390e"] ;
754 -> 755 ;
756 [label="day_of_week_Tue <= 0.5\nmse = 0.002\nsamples = 2\nvalue = 27.855", fillcolor="#e581390e"] ;
755 -> 756 ;
757 [label="mse = 0.0\nsamples = 1\nvalue = 27.9", fillcolor="#e581390e"] ;
756 -> 757 ;
758 [label="mse = 0.0\nsamples = 1\nvalue = 27.81", fillcolor="#e581390e"] ;
756 -> 758 ;
759 [label="mse = 0.0\nsamples = 1\nvalue = 27.63", fillcolor="#e581390d"] ;
755 -> 759 ;
760 [label="mse = 0.0\nsamples = 1\nvalue = 27.27", fillcolor="#e581390c"] ;
754 -> 760 ;
761 [label="mse = 0.0\nsamples = 1\nvalue = 28.8", fillcolor="#e5813912"] ;
753 -> 761 ;
762 [label="day <= 0.85\nmse = 0.137\nsamples = 3\nvalue = 26.85", fillcolor="#e581390a"] ;
748 -> 762 ;
763 [label="temp <= 0.408\nmse = 0.032\nsamples = 2\nvalue = 27.09", fillcolor="#e581390b"] ;
762 -> 763 ;
764 [label="mse = 0.0\nsamples = 1\nvalue = 26.91", fillcolor="#e581390b"] ;
763 -> 764 ;
765 [label="mse = 0.0\nsamples = 1\nvalue = 27.27", fillcolor="#e581390c"] ;
763 -> 765 ;
766 [label="mse = 0.0\nsamples = 1\nvalue = 26.37", fillcolor="#e5813909"] ;
762 -> 766 ;
767 [label="rh <= 0.394\nmse = 0.052\nsamples = 6\nvalue = 26.772", fillcolor="#e581390a"] ;
747 -> 767 ;
768 [label="mse = 0.0\nsamples = 1\nvalue = 26.1", fillcolor="#e5813908"] ;
767 -> 768 ;
769 [label="ws <= 0.287\nmse = 0.021\nsamples = 5\nvalue = 26.82", fillcolor="#e581390a"] ;
767 -> 769 ;
770 [label="rh <= 0.765\nmse = 0.01\nsamples = 4\nvalue = 26.775", fillcolor="#e581390a"] ;
769 -> 770 ;
771 [label="biz_day_0 <= 0.5\nmse = 0.002\nsamples = 3\nvalue = 26.842", fillcolor="#e581390a"] ;
770 -> 771 ;
772 [label="mse = 0.0\nsamples = 1\nvalue = 26.91", fillcolor="#e581390b"] ;
771 -> 772 ;
773 [label="mse = -0.0\nsamples = 2\nvalue = 26.82", fillcolor="#e581390a"] ;
771 -> 773 ;
774 [label="mse = 0.0\nsamples = 1\nvalue = 26.64", fillcolor="#e581390a"] ;
770 -> 774 ;
775 [label="mse = -0.0\nsamples = 1\nvalue = 27.09", fillcolor="#e581390b"] ;
769 -> 775 ;
776 [label="day <= 0.6\nmse = 0.424\nsamples = 9\nvalue = 26.176", fillcolor="#e5813908"] ;
746 -> 776 ;
777 [label="mse = 0.0\nsamples = 1\nvalue = 28.26", fillcolor="#e5813910"] ;
776 -> 777 ;
778 [label="temp <= 0.437\nmse = 0.067\nsamples = 8\nvalue = 26.002", fillcolor="#e5813907"] ;
776 -> 778 ;
779 [label="temp <= 0.427\nmse = 0.062\nsamples = 5\nvalue = 26.111", fillcolor="#e5813908"] ;
778 -> 779 ;
780 [label="temp <= 0.422\nmse = 0.044\nsamples = 3\nvalue = 25.974", fillcolor="#e5813907"] ;
779 -> 780 ;
781 [label="season_day <= 0.578\nmse = 0.002\nsamples = 2\nvalue = 26.078", fillcolor="#e5813907"] ;
780 -> 781 ;
782 [label="mse = -0.0\nsamples = 1\nvalue = 26.1", fillcolor="#e5813908"] ;
781 -> 782 ;
783 [label="mse = -0.0\nsamples = 1\nvalue = 26.01", fillcolor="#e5813907"] ;
781 -> 783 ;
784 [label="mse = -0.0\nsamples = 1\nvalue = 25.56", fillcolor="#e5813905"] ;
780 -> 784 ;
785 [label="day_of_week_Sat <= 0.5\nmse = 0.007\nsamples = 2\nvalue = 26.34", fillcolor="#e5813908"] ;
779 -> 785 ;
786 [label="mse = 0.0\nsamples = 1\nvalue = 26.46", fillcolor="#e5813909"] ;
785 -> 786 ;
787 [label="mse = -0.0\nsamples = 1\nvalue = 26.28", fillcolor="#e5813908"] ;
785 -> 787 ;
788 [label="temp <= 0.445\nmse = 0.006\nsamples = 3\nvalue = 25.785", fillcolor="#e5813906"] ;
778 -> 788 ;
789 [label="mse = 0.0\nsamples = 1\nvalue = 25.92", fillcolor="#e5813907"] ;
788 -> 789 ;
790 [label="mse = 0.0\nsamples = 2\nvalue = 25.74", fillcolor="#e5813906"] ;
788 -> 790 ;
791 [label="mse = 0.0\nsamples = 1\nvalue = 34.329", fillcolor="#e5813927"] ;
607 -> 791 ;
792 [label="day <= 0.917\nmse = 1.079\nsamples = 40\nvalue = 26.273", fillcolor="#e5813908"] ;
606 -> 792 ;
793 [label="temp <= 0.326\nmse = 0.847\nsamples = 33\nvalue = 26.535", fillcolor="#e5813909"] ;
792 -> 793 ;
794 [label="num_time <= 0.047\nmse = 0.134\nsamples = 8\nvalue = 27.457", fillcolor="#e581390d"] ;
793 -> 794 ;
795 [label="pwat <= 0.871\nmse = 0.089\nsamples = 7\nvalue = 27.567", fillcolor="#e581390d"] ;
794 -> 795 ;
796 [label="day <= 0.2\nmse = 0.04\nsamples = 6\nvalue = 27.49", fillcolor="#e581390d"] ;
795 -> 796 ;
797 [label="num_time <= 0.026\nmse = 0.017\nsamples = 3\nvalue = 27.342", fillcolor="#e581390c"] ;
796 -> 797 ;
798 [label="mse = 0.0\nsamples = 1\nvalue = 27.18", fillcolor="#e581390c"] ;
797 -> 798 ;
799 [label="mse = 0.0\nsamples = 2\nvalue = 27.45", fillcolor="#e581390d"] ;
797 -> 799 ;
800 [label="biz_day_1 <= 0.5\nmse = 0.006\nsamples = 3\nvalue = 27.675", fillcolor="#e581390d"] ;
796 -> 800 ;
801 [label="mse = 0.0\nsamples = 2\nvalue = 27.63", fillcolor="#e581390d"] ;
800 -> 801 ;
802 [label="mse = -0.0\nsamples = 1\nvalue = 27.81", fillcolor="#e581390e"] ;
800 -> 802 ;
803 [label="mse = 0.0\nsamples = 1\nvalue = 28.26", fillcolor="#e5813910"] ;
795 -> 803 ;
804 [label="mse = 0.0\nsamples = 1\nvalue = 26.91", fillcolor="#e581390b"] ;
794 -> 804 ;
805 [label="rh <= 0.377\nmse = 0.733\nsamples = 25\nvalue = 26.265", fillcolor="#e5813908"] ;
793 -> 805 ;
806 [label="day <= 0.5\nmse = 0.268\nsamples = 5\nvalue = 27.525", fillcolor="#e581390d"] ;
805 -> 806 ;
807 [label="season_day <= 0.372\nmse = 0.067\nsamples = 3\nvalue = 27.855", fillcolor="#e581390e"] ;
806 -> 807 ;
808 [label="rh <= 0.372\nmse = 0.016\nsamples = 2\nvalue = 27.99", fillcolor="#e581390f"] ;
807 -> 808 ;
809 [label="mse = 0.0\nsamples = 1\nvalue = 28.17", fillcolor="#e581390f"] ;
808 -> 809 ;
810 [label="mse = -0.0\nsamples = 1\nvalue = 27.9", fillcolor="#e581390e"] ;
808 -> 810 ;
811 [label="mse = -0.0\nsamples = 1\nvalue = 27.45", fillcolor="#e581390d"] ;
807 -> 811 ;
812 [label="ws <= 0.25\nmse = 0.018\nsamples = 2\nvalue = 26.865", fillcolor="#e581390a"] ;
806 -> 812 ;
813 [label="mse = 0.0\nsamples = 1\nvalue = 26.73", fillcolor="#e581390a"] ;
812 -> 813 ;
814 [label="mse = -0.0\nsamples = 1\nvalue = 27.0", fillcolor="#e581390b"] ;
812 -> 814 ;
815 [label="day <= 0.017\nmse = 0.494\nsamples = 20\nvalue = 26.049", fillcolor="#e5813907"] ;
805 -> 815 ;
816 [label="temp <= 0.363\nmse = 0.546\nsamples = 4\nvalue = 25.254", fillcolor="#e5813904"] ;
815 -> 816 ;
817 [label="num_time <= 0.047\nmse = 0.018\nsamples = 2\nvalue = 26.145", fillcolor="#e5813908"] ;
816 -> 817 ;
818 [label="mse = 0.0\nsamples = 1\nvalue = 26.01", fillcolor="#e5813907"] ;
817 -> 818 ;
819 [label="mse = -0.0\nsamples = 1\nvalue = 26.28", fillcolor="#e5813908"] ;
817 -> 819 ;
820 [label="temp <= 0.369\nmse = 0.016\nsamples = 2\nvalue = 24.66", fillcolor="#e5813902"] ;
816 -> 820 ;
821 [label="mse = 0.0\nsamples = 1\nvalue = 24.75", fillcolor="#e5813902"] ;
820 -> 821 ;
822 [label="mse = -0.0\nsamples = 1\nvalue = 24.48", fillcolor="#e5813901"] ;
820 -> 822 ;
823 [label="day_of_week_Mon <= 0.5\nmse = 0.362\nsamples = 16\nvalue = 26.181", fillcolor="#e5813908"] ;
815 -> 823 ;
824 [label="day_of_week_Tue <= 0.5\nmse = 0.227\nsamples = 15\nvalue = 26.078", fillcolor="#e5813907"] ;
823 -> 824 ;
825 [label="rh <= 0.552\nmse = 0.156\nsamples = 11\nvalue = 25.907", fillcolor="#e5813907"] ;
824 -> 825 ;
826 [label="ws <= 0.223\nmse = 0.072\nsamples = 4\nvalue = 25.62", fillcolor="#e5813906"] ;
825 -> 826 ;
827 [label="mse = 0.0\nsamples = 1\nvalue = 26.37", fillcolor="#e5813909"] ;
826 -> 827 ;
828 [label="ws <= 0.33\nmse = 0.002\nsamples = 3\nvalue = 25.526", fillcolor="#e5813905"] ;
826 -> 828 ;
829 [label="mse = 0.0\nsamples = 2\nvalue = 25.56", fillcolor="#e5813905"] ;
828 -> 829 ;
830 [label="mse = 0.0\nsamples = 1\nvalue = 25.47", fillcolor="#e5813905"] ;
828 -> 830 ;
831 [label="rh <= 0.666\nmse = 0.111\nsamples = 7\nvalue = 26.123", fillcolor="#e5813908"] ;
825 -> 831 ;
832 [label="week_day_end_end <= 0.5\nmse = 0.042\nsamples = 3\nvalue = 26.303", fillcolor="#e5813908"] ;
831 -> 832 ;
833 [label="season_day <= 0.733\nmse = 0.002\nsamples = 2\nvalue = 26.505", fillcolor="#e5813909"] ;
832 -> 833 ;
834 [label="mse = 0.0\nsamples = 1\nvalue = 26.46", fillcolor="#e5813909"] ;
833 -> 834 ;
835 [label="mse = -0.0\nsamples = 1\nvalue = 26.55", fillcolor="#e5813909"] ;
833 -> 835 ;
836 [label="mse = -0.0\nsamples = 1\nvalue = 26.1", fillcolor="#e5813908"] ;
832 -> 836 ;
837 [label="ws <= 0.229\nmse = 0.054\nsamples = 4\nvalue = 25.763", fillcolor="#e5813906"] ;
831 -> 837 ;
838 [label="pwat <= 0.855\nmse = 0.034\nsamples = 3\nvalue = 25.86", fillcolor="#e5813907"] ;
837 -> 838 ;
839 [label="mse = 0.0\nsamples = 1\nvalue = 26.1", fillcolor="#e5813908"] ;
838 -> 839 ;
840 [label="rh <= 0.68\nmse = 0.008\nsamples = 2\nvalue = 25.74", fillcolor="#e5813906"] ;
838 -> 840 ;
841 [label="mse = 0.0\nsamples = 1\nvalue = 25.83", fillcolor="#e5813906"] ;
840 -> 841 ;
842 [label="mse = 0.0\nsamples = 1\nvalue = 25.65", fillcolor="#e5813906"] ;
840 -> 842 ;
843 [label="mse = 0.0\nsamples = 1\nvalue = 25.47", fillcolor="#e5813905"] ;
837 -> 843 ;
844 [label="num_time <= 0.047\nmse = 0.092\nsamples = 4\nvalue = 26.589", fillcolor="#e5813909"] ;
824 -> 844 ;
845 [label="rh <= 0.414\nmse = 0.036\nsamples = 3\nvalue = 26.82", fillcolor="#e581390a"] ;
844 -> 845 ;
846 [label="mse = 0.0\nsamples = 1\nvalue = 26.64", fillcolor="#e581390a"] ;
845 -> 846 ;
847 [label="season_day <= 0.606\nmse = 0.008\nsamples = 2\nvalue = 27.0", fillcolor="#e581390b"] ;
845 -> 847 ;
848 [label="mse = 0.0\nsamples = 1\nvalue = 26.91", fillcolor="#e581390b"] ;
847 -> 848 ;
849 [label="mse = 0.0\nsamples = 1\nvalue = 27.09", fillcolor="#e581390b"] ;
847 -> 849 ;
850 [label="mse = 0.0\nsamples = 1\nvalue = 26.28", fillcolor="#e5813908"] ;
844 -> 850 ;
851 [label="mse = 0.0\nsamples = 1\nvalue = 27.63", fillcolor="#e581390d"] ;
823 -> 851 ;
852 [label="rh <= 0.383\nmse = 0.276\nsamples = 7\nvalue = 25.012", fillcolor="#e5813903"] ;
792 -> 852 ;
853 [label="num_time <= 0.037\nmse = 0.03\nsamples = 3\nvalue = 24.412", fillcolor="#e5813901"] ;
852 -> 853 ;
854 [label="mse = 0.0\nsamples = 1\nvalue = 24.57", fillcolor="#e5813902"] ;
853 -> 854 ;
855 [label="rh <= 0.381\nmse = 0.029\nsamples = 2\nvalue = 24.36", fillcolor="#e5813901"] ;
853 -> 855 ;
856 [label="mse = 0.0\nsamples = 1\nvalue = 24.48", fillcolor="#e5813901"] ;
855 -> 856 ;
857 [label="mse = 0.0\nsamples = 1\nvalue = 24.12", fillcolor="#e5813900"] ;
855 -> 857 ;
858 [label="season_day <= 0.489\nmse = 0.094\nsamples = 4\nvalue = 25.354", fillcolor="#e5813905"] ;
852 -> 858 ;
859 [label="mse = 0.0\nsamples = 1\nvalue = 26.01", fillcolor="#e5813907"] ;
858 -> 859 ;
860 [label="pwat <= 0.736\nmse = 0.026\nsamples = 3\nvalue = 25.245", fillcolor="#e5813904"] ;
858 -> 860 ;
861 [label="num_time <= 0.047\nmse = 0.008\nsamples = 2\nvalue = 25.308", fillcolor="#e5813904"] ;
860 -> 861 ;
862 [label="mse = 0.0\nsamples = 1\nvalue = 25.38", fillcolor="#e5813905"] ;
861 -> 862 ;
863 [label="mse = 0.0\nsamples = 1\nvalue = 25.2", fillcolor="#e5813904"] ;
861 -> 863 ;
864 [label="mse = -0.0\nsamples = 1\nvalue = 24.93", fillcolor="#e5813903"] ;
860 -> 864 ;
865 [label="temp <= 0.355\nmse = 1.671\nsamples = 35\nvalue = 26.219", fillcolor="#e5813908"] ;
605 -> 865 ;
866 [label="pwat <= 0.709\nmse = 0.65\nsamples = 21\nvalue = 25.448", fillcolor="#e5813905"] ;
865 -> 866 ;
867 [label="day_of_week_Tue <= 0.5\nmse = 0.361\nsamples = 18\nvalue = 25.255", fillcolor="#e5813904"] ;
866 -> 867 ;
868 [label="pwat <= 0.463\nmse = 0.262\nsamples = 16\nvalue = 25.126", fillcolor="#e5813904"] ;
867 -> 868 ;
869 [label="num_time <= 0.026\nmse = 0.029\nsamples = 5\nvalue = 24.581", fillcolor="#e5813902"] ;
868 -> 869 ;
870 [label="mse = 0.0\nsamples = 1\nvalue = 25.02", fillcolor="#e5813903"] ;
869 -> 870 ;
871 [label="day_of_week_Mon <= 0.5\nmse = 0.002\nsamples = 4\nvalue = 24.519", fillcolor="#e5813902"] ;
869 -> 871 ;
872 [label="mse = -0.0\nsamples = 2\nvalue = 24.57", fillcolor="#e5813902"] ;
871 -> 872 ;
873 [label="mse = 0.0\nsamples = 2\nvalue = 24.48", fillcolor="#e5813901"] ;
871 -> 873 ;
874 [label="ws <= 0.229\nmse = 0.143\nsamples = 11\nvalue = 25.416", fillcolor="#e5813905"] ;
868 -> 874 ;
875 [label="num_time <= 0.042\nmse = 0.049\nsamples = 5\nvalue = 25.21", fillcolor="#e5813904"] ;
874 -> 875 ;
876 [label="ws <= 0.207\nmse = 0.008\nsamples = 3\nvalue = 25.038", fillcolor="#e5813903"] ;
875 -> 876 ;
877 [label="mse = 0.0\nsamples = 2\nvalue = 25.11", fillcolor="#e5813904"] ;
876 -> 877 ;
878 [label="mse = -0.0\nsamples = 1\nvalue = 24.93", fillcolor="#e5813903"] ;
876 -> 878 ;
879 [label="day_of_week_Mon <= 0.5\nmse = 0.018\nsamples = 2\nvalue = 25.425", fillcolor="#e5813905"] ;
875 -> 879 ;
880 [label="mse = 0.0\nsamples = 1\nvalue = 25.56", fillcolor="#e5813905"] ;
879 -> 880 ;
881 [label="mse = 0.0\nsamples = 1\nvalue = 25.29", fillcolor="#e5813904"] ;
879 -> 881 ;
882 [label="num_time <= 0.037\nmse = 0.125\nsamples = 6\nvalue = 25.725", fillcolor="#e5813906"] ;
874 -> 882 ;
883 [label="ws <= 0.266\nmse = 0.123\nsamples = 4\nvalue = 25.582", fillcolor="#e5813906"] ;
882 -> 883 ;
884 [label="rh <= 0.436\nmse = 0.045\nsamples = 3\nvalue = 25.41", fillcolor="#e5813905"] ;
883 -> 884 ;
885 [label="mse = 0.0\nsamples = 1\nvalue = 25.11", fillcolor="#e5813904"] ;
884 -> 885 ;
886 [label="mse = 0.0\nsamples = 2\nvalue = 25.56", fillcolor="#e5813905"] ;
884 -> 886 ;
887 [label="mse = -0.0\nsamples = 1\nvalue = 26.1", fillcolor="#e5813908"] ;
883 -> 887 ;
888 [label="rh <= 0.473\nmse = 0.008\nsamples = 2\nvalue = 26.01", fillcolor="#e5813907"] ;
882 -> 888 ;
889 [label="mse = 0.0\nsamples = 1\nvalue = 26.1", fillcolor="#e5813908"] ;
888 -> 889 ;
890 [label="mse = 0.0\nsamples = 1\nvalue = 25.92", fillcolor="#e5813907"] ;
888 -> 890 ;
891 [label="num_time <= 0.037\nmse = 0.007\nsamples = 2\nvalue = 26.25", fillcolor="#e5813908"] ;
867 -> 891 ;
892 [label="mse = 0.0\nsamples = 1\nvalue = 26.19", fillcolor="#e5813908"] ;
891 -> 892 ;
893 [label="mse = 0.0\nsamples = 1\nvalue = 26.37", fillcolor="#e5813909"] ;
891 -> 893 ;
894 [label="temp <= 0.294\nmse = 0.034\nsamples = 3\nvalue = 27.12", fillcolor="#e581390b"] ;
866 -> 894 ;
895 [label="mse = 0.0\nsamples = 1\nvalue = 27.36", fillcolor="#e581390c"] ;
894 -> 895 ;
896 [label="num_time <= 0.037\nmse = 0.008\nsamples = 2\nvalue = 27.0", fillcolor="#e581390b"] ;
894 -> 896 ;
897 [label="mse = 0.0\nsamples = 1\nvalue = 26.91", fillcolor="#e581390b"] ;
896 -> 897 ;
898 [label="mse = 0.0\nsamples = 1\nvalue = 27.09", fillcolor="#e581390b"] ;
896 -> 898 ;
899 [label="pwat <= 0.422\nmse = 0.668\nsamples = 14\nvalue = 27.535", fillcolor="#e581390d"] ;
865 -> 899 ;
900 [label="rh <= 0.221\nmse = 0.032\nsamples = 2\nvalue = 26.01", fillcolor="#e5813907"] ;
899 -> 900 ;
901 [label="mse = 0.0\nsamples = 1\nvalue = 25.83", fillcolor="#e5813906"] ;
900 -> 901 ;
902 [label="mse = 0.0\nsamples = 1\nvalue = 26.19", fillcolor="#e5813908"] ;
900 -> 902 ;
903 [label="temp <= 0.382\nmse = 0.402\nsamples = 12\nvalue = 27.738", fillcolor="#e581390e"] ;
899 -> 903 ;
904 [label="day_of_week_Mon <= 0.5\nmse = 0.077\nsamples = 3\nvalue = 26.94", fillcolor="#e581390b"] ;
903 -> 904 ;
905 [label="mse = 0.0\nsamples = 1\nvalue = 26.55", fillcolor="#e5813909"] ;
904 -> 905 ;
906 [label="pwat <= 0.561\nmse = 0.002\nsamples = 2\nvalue = 27.135", fillcolor="#e581390b"] ;
904 -> 906 ;
907 [label="mse = 0.0\nsamples = 1\nvalue = 27.09", fillcolor="#e581390b"] ;
906 -> 907 ;
908 [label="mse = 0.0\nsamples = 1\nvalue = 27.18", fillcolor="#e581390c"] ;
906 -> 908 ;
909 [label="rh <= 0.355\nmse = 0.284\nsamples = 9\nvalue = 27.937", fillcolor="#e581390e"] ;
903 -> 909 ;
910 [label="season_day <= 0.989\nmse = 0.002\nsamples = 2\nvalue = 28.5", fillcolor="#e5813911"] ;
909 -> 910 ;
911 [label="mse = 0.0\nsamples = 1\nvalue = 28.44", fillcolor="#e5813910"] ;
910 -> 911 ;
912 [label="mse = 0.0\nsamples = 1\nvalue = 28.53", fillcolor="#e5813911"] ;
910 -> 912 ;
913 [label="temp <= 0.406\nmse = 0.238\nsamples = 7\nvalue = 27.75", fillcolor="#e581390e"] ;
909 -> 913 ;
914 [label="rh <= 0.41\nmse = 0.253\nsamples = 4\nvalue = 28.125", fillcolor="#e581390f"] ;
913 -> 914 ;
915 [label="pwat <= 0.561\nmse = 0.013\nsamples = 3\nvalue = 27.84", fillcolor="#e581390e"] ;
914 -> 915 ;
916 [label="mse = 0.0\nsamples = 1\nvalue = 27.99", fillcolor="#e581390f"] ;
915 -> 916 ;
917 [label="num_time <= 0.047\nmse = 0.002\nsamples = 2\nvalue = 27.765", fillcolor="#e581390e"] ;
915 -> 917 ;
918 [label="mse = 0.0\nsamples = 1\nvalue = 27.81", fillcolor="#e581390e"] ;
917 -> 918 ;
919 [label="mse = -0.0\nsamples = 1\nvalue = 27.72", fillcolor="#e581390e"] ;
917 -> 919 ;
920 [label="mse = -0.0\nsamples = 1\nvalue = 28.98", fillcolor="#e5813912"] ;
914 -> 920 ;
921 [label="rh <= 0.41\nmse = 0.023\nsamples = 3\nvalue = 27.45", fillcolor="#e581390d"] ;
913 -> 921 ;
922 [label="mse = 0.0\nsamples = 1\nvalue = 27.63", fillcolor="#e581390d"] ;
921 -> 922 ;
923 [label="week_day_end_end <= 0.5\nmse = 0.002\nsamples = 2\nvalue = 27.33", fillcolor="#e581390c"] ;
921 -> 923 ;
924 [label="mse = 0.0\nsamples = 1\nvalue = 27.36", fillcolor="#e581390c"] ;
923 -> 924 ;
925 [label="mse = 0.0\nsamples = 1\nvalue = 27.27", fillcolor="#e581390c"] ;
923 -> 925 ;
926 [label="pwat <= 0.423\nmse = 0.853\nsamples = 22\nvalue = 27.622", fillcolor="#e581390d"] ;
604 -> 926 ;
927 [label="temp <= 0.348\nmse = 0.221\nsamples = 5\nvalue = 26.595", fillcolor="#e5813909"] ;
926 -> 927 ;
928 [label="num_time <= 0.047\nmse = 0.092\nsamples = 4\nvalue = 26.82", fillcolor="#e581390a"] ;
927 -> 928 ;
929 [label="ws <= 0.234\nmse = 0.015\nsamples = 3\nvalue = 26.946", fillcolor="#e581390b"] ;
928 -> 929 ;
930 [label="pwat <= 0.281\nmse = 0.002\nsamples = 2\nvalue = 26.85", fillcolor="#e581390a"] ;
929 -> 930 ;
931 [label="mse = 0.0\nsamples = 1\nvalue = 26.91", fillcolor="#e581390b"] ;
930 -> 931 ;
932 [label="mse = 0.0\nsamples = 1\nvalue = 26.82", fillcolor="#e581390a"] ;
930 -> 932 ;
933 [label="mse = -0.0\nsamples = 1\nvalue = 27.09", fillcolor="#e581390b"] ;
929 -> 933 ;
934 [label="mse = 0.0\nsamples = 1\nvalue = 26.19", fillcolor="#e5813908"] ;
928 -> 934 ;
935 [label="mse = 0.0\nsamples = 1\nvalue = 25.92", fillcolor="#e5813907"] ;
927 -> 935 ;
936 [label="season_day <= 0.617\nmse = 0.623\nsamples = 17\nvalue = 27.938", fillcolor="#e581390e"] ;
926 -> 936 ;
937 [label="temp <= 0.432\nmse = 0.153\nsamples = 7\nvalue = 28.69", fillcolor="#e5813911"] ;
936 -> 937 ;
938 [label="num_time <= 0.026\nmse = 0.053\nsamples = 6\nvalue = 28.575", fillcolor="#e5813911"] ;
937 -> 938 ;
939 [label="temp <= 0.312\nmse = 0.016\nsamples = 2\nvalue = 28.35", fillcolor="#e5813910"] ;
938 -> 939 ;
940 [label="mse = 0.0\nsamples = 1\nvalue = 28.17", fillcolor="#e581390f"] ;
939 -> 940 ;
941 [label="mse = -0.0\nsamples = 1\nvalue = 28.44", fillcolor="#e5813910"] ;
939 -> 941 ;
942 [label="season_day <= 0.472\nmse = 0.026\nsamples = 4\nvalue = 28.71", fillcolor="#e5813911"] ;
938 -> 942 ;
943 [label="num_time <= 0.042\nmse = 0.01\nsamples = 3\nvalue = 28.778", fillcolor="#e5813912"] ;
942 -> 943 ;
944 [label="mse = 0.0\nsamples = 1\nvalue = 28.62", fillcolor="#e5813911"] ;
943 -> 944 ;
945 [label="ws <= 0.298\nmse = 0.002\nsamples = 2\nvalue = 28.83", fillcolor="#e5813912"] ;
943 -> 945 ;
946 [label="mse = 0.0\nsamples = 1\nvalue = 28.89", fillcolor="#e5813912"] ;
945 -> 946 ;
947 [label="mse = -0.0\nsamples = 1\nvalue = 28.8", fillcolor="#e5813912"] ;
945 -> 947 ;
948 [label="mse = 0.0\nsamples = 1\nvalue = 28.44", fillcolor="#e5813910"] ;
942 -> 948 ;
949 [label="mse = -0.0\nsamples = 1\nvalue = 29.61", fillcolor="#e5813915"] ;
937 -> 949 ;
950 [label="rh <= 0.334\nmse = 0.415\nsamples = 10\nvalue = 27.54", fillcolor="#e581390d"] ;
936 -> 950 ;
951 [label="num_time <= 0.037\nmse = 0.199\nsamples = 5\nvalue = 26.748", fillcolor="#e581390a"] ;
950 -> 951 ;
952 [label="rh <= 0.313\nmse = 0.038\nsamples = 3\nvalue = 27.0", fillcolor="#e581390b"] ;
951 -> 952 ;
953 [label="mse = 0.0\nsamples = 1\nvalue = 26.73", fillcolor="#e581390a"] ;
952 -> 953 ;
954 [label="rh <= 0.322\nmse = 0.002\nsamples = 2\nvalue = 27.135", fillcolor="#e581390b"] ;
952 -> 954 ;
955 [label="mse = 0.0\nsamples = 1\nvalue = 27.09", fillcolor="#e581390b"] ;
954 -> 955 ;
956 [label="mse = 0.0\nsamples = 1\nvalue = 27.18", fillcolor="#e581390c"] ;
954 -> 956 ;
957 [label="day <= 0.8\nmse = 0.203\nsamples = 2\nvalue = 26.37", fillcolor="#e5813909"] ;
951 -> 957 ;
958 [label="mse = 0.0\nsamples = 1\nvalue = 26.82", fillcolor="#e581390a"] ;
957 -> 958 ;
959 [label="mse = 0.0\nsamples = 1\nvalue = 25.92", fillcolor="#e5813907"] ;
957 -> 959 ;
960 [label="month <= 0.75\nmse = 0.134\nsamples = 5\nvalue = 27.87", fillcolor="#e581390e"] ;
950 -> 960 ;
961 [label="mse = 0.0\nsamples = 1\nvalue = 28.8", fillcolor="#e5813912"] ;
960 -> 961 ;
962 [label="rh <= 0.477\nmse = 0.061\nsamples = 4\nvalue = 27.785", fillcolor="#e581390e"] ;
960 -> 962 ;
963 [label="season_day <= 0.85\nmse = 0.007\nsamples = 3\nvalue = 27.641", fillcolor="#e581390d"] ;
962 -> 963 ;
964 [label="mse = 0.0\nsamples = 1\nvalue = 27.45", fillcolor="#e581390d"] ;
963 -> 964 ;
965 [label="rh <= 0.462\nmse = 0.002\nsamples = 2\nvalue = 27.669", fillcolor="#e581390d"] ;
963 -> 965 ;
966 [label="mse = 0.0\nsamples = 1\nvalue = 27.63", fillcolor="#e581390d"] ;
965 -> 966 ;
967 [label="mse = -0.0\nsamples = 1\nvalue = 27.72", fillcolor="#e581390e"] ;
965 -> 967 ;
968 [label="mse = 0.0\nsamples = 1\nvalue = 28.17", fillcolor="#e581390f"] ;
962 -> 968 ;
969 [label="temp <= 0.391\nmse = 6.599\nsamples = 69\nvalue = 28.76", fillcolor="#e5813912"] ;
333 -> 969 ;
970 [label="rh <= 0.761\nmse = 4.844\nsamples = 54\nvalue = 28.167", fillcolor="#e581390f"] ;
969 -> 970 ;
971 [label="day_of_week_Tue <= 0.5\nmse = 3.23\nsamples = 53\nvalue = 27.951", fillcolor="#e581390f"] ;
970 -> 971 ;
972 [label="rh <= 0.482\nmse = 1.917\nsamples = 46\nvalue = 27.579", fillcolor="#e581390d"] ;
971 -> 972 ;
973 [label="temp <= 0.288\nmse = 1.942\nsamples = 33\nvalue = 27.888", fillcolor="#e581390e"] ;
972 -> 973 ;
974 [label="day_of_week_Fri <= 0.5\nmse = 3.198\nsamples = 5\nvalue = 26.355", fillcolor="#e5813908"] ;
973 -> 974 ;
975 [label="rh <= 0.306\nmse = 1.006\nsamples = 4\nvalue = 25.668", fillcolor="#e5813906"] ;
974 -> 975 ;
976 [label="month <= 0.25\nmse = 0.13\nsamples = 2\nvalue = 26.82", fillcolor="#e581390a"] ;
975 -> 976 ;
977 [label="mse = 0.0\nsamples = 1\nvalue = 27.18", fillcolor="#e581390c"] ;
976 -> 977 ;
978 [label="mse = 0.0\nsamples = 1\nvalue = 26.46", fillcolor="#e5813909"] ;
976 -> 978 ;
979 [label="day_of_week_Mon <= 0.5\nmse = 0.115\nsamples = 2\nvalue = 24.9", fillcolor="#e5813903"] ;
975 -> 979 ;
980 [label="mse = 0.0\nsamples = 1\nvalue = 25.38", fillcolor="#e5813905"] ;
979 -> 980 ;
981 [label="mse = -0.0\nsamples = 1\nvalue = 24.66", fillcolor="#e5813902"] ;
979 -> 981 ;
982 [label="mse = 0.0\nsamples = 1\nvalue = 29.79", fillcolor="#e5813915"] ;
974 -> 982 ;
983 [label="day <= 0.9\nmse = 1.379\nsamples = 28\nvalue = 28.107", fillcolor="#e581390f"] ;
973 -> 983 ;
984 [label="day_of_week_Sun <= 0.5\nmse = 0.848\nsamples = 26\nvalue = 27.938", fillcolor="#e581390e"] ;
983 -> 984 ;
985 [label="rh <= 0.275\nmse = 0.652\nsamples = 23\nvalue = 28.075", fillcolor="#e581390f"] ;
984 -> 985 ;
986 [label="ws <= 0.176\nmse = 0.474\nsamples = 5\nvalue = 27.285", fillcolor="#e581390c"] ;
985 -> 986 ;
987 [label="month <= 0.25\nmse = 0.029\nsamples = 2\nvalue = 27.93", fillcolor="#e581390e"] ;
986 -> 987 ;
988 [label="mse = 0.0\nsamples = 1\nvalue = 28.17", fillcolor="#e581390f"] ;
987 -> 988 ;
989 [label="mse = 0.0\nsamples = 1\nvalue = 27.81", fillcolor="#e581390e"] ;
987 -> 989 ;
990 [label="season_day <= 0.317\nmse = 0.086\nsamples = 3\nvalue = 26.64", fillcolor="#e581390a"] ;
986 -> 990 ;
991 [label="week_day_end_day <= 0.5\nmse = 0.032\nsamples = 2\nvalue = 26.82", fillcolor="#e581390a"] ;
990 -> 991 ;
992 [label="mse = 0.0\nsamples = 1\nvalue = 26.64", fillcolor="#e581390a"] ;
991 -> 992 ;
993 [label="mse = 0.0\nsamples = 1\nvalue = 27.0", fillcolor="#e581390b"] ;
991 -> 993 ;
994 [label="mse = -0.0\nsamples = 1\nvalue = 26.28", fillcolor="#e5813908"] ;
990 -> 994 ;
995 [label="ws <= 0.08\nmse = 0.542\nsamples = 18\nvalue = 28.228", fillcolor="#e5813910"] ;
985 -> 995 ;
996 [label="mse = 0.0\nsamples = 1\nvalue = 26.19", fillcolor="#e5813908"] ;
995 -> 996 ;
997 [label="rh <= 0.417\nmse = 0.417\nsamples = 17\nvalue = 28.296", fillcolor="#e5813910"] ;
995 -> 997 ;
998 [label="rh <= 0.291\nmse = 0.281\nsamples = 12\nvalue = 28.063", fillcolor="#e581390f"] ;
997 -> 998 ;
999 [label="rh <= 0.287\nmse = 0.207\nsamples = 3\nvalue = 28.8", fillcolor="#e5813912"] ;
998 -> 999 ;
1000 [label="mse = 0.0\nsamples = 1\nvalue = 28.08", fillcolor="#e581390f"] ;
999 -> 1000 ;
1001 [label="biz_day_1 <= 0.5\nmse = 0.045\nsamples = 2\nvalue = 29.04", fillcolor="#e5813913"] ;
999 -> 1001 ;
1002 [label="mse = 0.0\nsamples = 1\nvalue = 28.89", fillcolor="#e5813912"] ;
1001 -> 1002 ;
